<?xml version="1.0"?>
<opencv_storage>
<cascade>
  <stageType>BOOST</stageType>
  <featureType>HAAR</featureType>
  <height>32</height>
  <width>32</width>
  <stageParams>
    <boostType>GAB</boostType>
    <minHitRate>1.</minHitRate>
    <maxFalseAlarm>5.0000000000000000e-01</maxFalseAlarm>
    <weightTrimRate>9.4999998807907104e-01</weightTrimRate>
    <maxDepth>1</maxDepth>
    <maxWeakCount>100</maxWeakCount></stageParams>
  <featureParams>
    <maxCatCount>0</maxCatCount>
    <featSize>1</featSize>
    <mode>BASIC</mode></featureParams>
  <stageNum>20</stageNum>
  <stages>
    <!-- stage 0 -->
    <_>
      <maxWeakCount>6</maxWeakCount>
      <stageThreshold>-1.6022565364837646e+00</stageThreshold>
      <weakClassifiers>
        <_>
          <internalNodes>
            0 -1 65 -1.3516004383563995e-01</internalNodes>
          <leafValues>
            1.0806792974472046e+00 -9.9288964271545410e-01</leafValues></_>
        <_>
          <internalNodes>
            0 -1 11 5.1662547048181295e-04</internalNodes>
          <leafValues>
            -8.4848695993423462e-01 6.4786356687545776e-01</leafValues></_>
        <_>
          <internalNodes>
            0 -1 39 6.7726373672485352e-03</internalNodes>
          <leafValues>
            -4.3163901567459106e-01 1.0446481704711914e+00</leafValues></_>
        <_>
          <internalNodes>
            0 -1 206 1.3792706886306405e-03</internalNodes>
          <leafValues>
            -8.1665259599685669e-01 4.5734718441963196e-01</leafValues></_>
        <_>
          <internalNodes>
            0 -1 122 9.9488638341426849e-02</internalNodes>
          <leafValues>
            -3.0804184079170227e-01 1.4000092744827271e+00</leafValues></_>
        <_>
          <internalNodes>
            0 -1 68 5.8695812185760587e-05</internalNodes>
          <leafValues>
            -8.1524705886840820e-01 5.2145373821258545e-01</leafValues></_></weakClassifiers></_>
    <!-- stage 1 -->
    <_>
      <maxWeakCount>7</maxWeakCount>
      <stageThreshold>-2.3025298118591309e+00</stageThreshold>
      <weakClassifiers>
        <_>
          <internalNodes>
            0 -1 21 1.7430275678634644e-01</internalNodes>
          <leafValues>
            -8.9832472801208496e-01 8.1235271692276001e-01</leafValues></_>
        <_>
          <internalNodes>
            0 -1 213 2.7876012609340250e-04</internalNodes>
          <leafValues>
            -5.8960586786270142e-01 7.4860703945159912e-01</leafValues></_>
        <_>
          <internalNodes>
            0 -1 202 1.1670559179037809e-03</internalNodes>
          <leafValues>
            -6.9974243640899658e-01 5.1792645454406738e-01</leafValues></_>
        <_>
          <internalNodes>
            0 -1 1 2.3430624423781410e-05</internalNodes>
          <leafValues>
            -7.2485232353210449e-01 4.2939338088035583e-01</leafValues></_>
        <_>
          <internalNodes>
            0 -1 82 1.1490955948829651e-02</internalNodes>
          <leafValues>
            4.3197008967399597e-01 -9.9631351232528687e-01</leafValues></_>
        <_>
          <internalNodes>
            0 -1 153 -1.5820916742086411e-03</internalNodes>
          <leafValues>
            6.0684305429458618e-01 -5.8062040805816650e-01</leafValues></_>
        <_>
          <internalNodes>
            0 -1 172 9.9391234107315540e-04</internalNodes>
          <leafValues>
            -4.5902308821678162e-01 6.3811630010604858e-01</leafValues></_></weakClassifiers></_>
    <!-- stage 2 -->
    <_>
      <maxWeakCount>9</maxWeakCount>
      <stageThreshold>-2.0408761501312256e+00</stageThreshold>
      <weakClassifiers>
        <_>
          <internalNodes>
            0 -1 118 -2.1644365042448044e-02</internalNodes>
          <leafValues>
            3.1491002440452576e-01 -1.1512925624847412e+00</leafValues></_>
        <_>
          <internalNodes>
            0 -1 97 1.4929621480405331e-02</internalNodes>
          <leafValues>
            -5.3460413217544556e-01 7.2071999311447144e-01</leafValues></_>
        <_>
          <internalNodes>
            0 -1 36 -6.7216837778687477e-03</internalNodes>
          <leafValues>
            5.5081635713577271e-01 -5.5236160755157471e-01</leafValues></_>
        <_>
          <internalNodes>
            0 -1 45 7.3432037606835365e-03</internalNodes>
          <leafValues>
            -5.6658476591110229e-01 4.8192694783210754e-01</leafValues></_>
        <_>
          <internalNodes>
            0 -1 159 -2.5620646774768829e-03</internalNodes>
          <leafValues>
            5.1700985431671143e-01 -5.3977876901626587e-01</leafValues></_>
        <_>
          <internalNodes>
            0 -1 107 -5.4634963162243366e-03</internalNodes>
          <leafValues>
            4.1442385315895081e-01 -4.5274719595909119e-01</leafValues></_>
        <_>
          <internalNodes>
            0 -1 96 -5.8893242385238409e-04</internalNodes>
          <leafValues>
            -8.7413471937179565e-01 3.0281820893287659e-01</leafValues></_>
        <_>
          <internalNodes>
            0 -1 171 -2.1809250116348267e-02</internalNodes>
          <leafValues>
            -1.3710159063339233e+00 2.1197757124900818e-01</leafValues></_>
        <_>
          <internalNodes>
            0 -1 138 5.5832587182521820e-02</internalNodes>
          <leafValues>
            1.9318528473377228e-01 -1.5313305854797363e+00</leafValues></_></weakClassifiers></_>
    <!-- stage 3 -->
    <_>
      <maxWeakCount>6</maxWeakCount>
      <stageThreshold>-1.5241851806640625e+00</stageThreshold>
      <weakClassifiers>
        <_>
          <internalNodes>
            0 -1 42 -1.8987977504730225e-01</internalNodes>
          <leafValues>
            7.2721606492996216e-01 -9.0384805202484131e-01</leafValues></_>
        <_>
          <internalNodes>
            0 -1 44 -3.1736209988594055e-02</internalNodes>
          <leafValues>
            6.2795656919479370e-01 -5.0802016258239746e-01</leafValues></_>
        <_>
          <internalNodes>
            0 -1 93 1.0470482707023621e-01</internalNodes>
          <leafValues>
            -2.4595907330513000e-01 1.1135867834091187e+00</leafValues></_>
        <_>
          <internalNodes>
            0 -1 116 9.8092004656791687e-02</internalNodes>
          <leafValues>
            -3.4308591485023499e-01 7.4633264541625977e-01</leafValues></_>
        <_>
          <internalNodes>
            0 -1 204 -6.6057487856596708e-04</internalNodes>
          <leafValues>
            -1.2071708440780640e+00 2.5431951880455017e-01</leafValues></_>
        <_>
          <internalNodes>
            0 -1 115 -8.6874086409807205e-03</internalNodes>
          <leafValues>
            4.1055089235305786e-01 -5.4149639606475830e-01</leafValues></_></weakClassifiers></_>
    <!-- stage 4 -->
    <_>
      <maxWeakCount>11</maxWeakCount>
      <stageThreshold>-1.9723490476608276e+00</stageThreshold>
      <weakClassifiers>
        <_>
          <internalNodes>
            0 -1 209 7.8754415735602379e-03</internalNodes>
          <leafValues>
            -6.6076177358627319e-01 1.3611173629760742e+00</leafValues></_>
        <_>
          <internalNodes>
            0 -1 133 9.0775520220631734e-06</internalNodes>
          <leafValues>
            -6.7874163389205933e-01 4.4910922646522522e-01</leafValues></_>
        <_>
          <internalNodes>
            0 -1 41 -1.1175914108753204e-01</internalNodes>
          <leafValues>
            5.1809138059616089e-01 -4.9806600809097290e-01</leafValues></_>
        <_>
          <internalNodes>
            0 -1 20 1.5889239875832573e-05</internalNodes>
          <leafValues>
            -4.6519619226455688e-01 5.5756264925003052e-01</leafValues></_>
        <_>
          <internalNodes>
            0 -1 155 -3.0414019711315632e-03</internalNodes>
          <leafValues>
            -7.1786779165267944e-01 3.7944233417510986e-01</leafValues></_>
        <_>
          <internalNodes>
            0 -1 180 8.6214882321655750e-04</internalNodes>
          <leafValues>
            2.3217409849166870e-01 -8.8206231594085693e-01</leafValues></_>
        <_>
          <internalNodes>
            0 -1 13 -4.3428124627098441e-04</internalNodes>
          <leafValues>
            -6.8219810724258423e-01 3.0328106880187988e-01</leafValues></_>
        <_>
          <internalNodes>
            0 -1 12 1.2215558672323823e-03</internalNodes>
          <leafValues>
            2.7929949760437012e-01 -8.6269783973693848e-01</leafValues></_>
        <_>
          <internalNodes>
            0 -1 142 5.8483919128775597e-03</internalNodes>
          <leafValues>
            -2.1393714845180511e-01 1.3138262033462524e+00</leafValues></_>
        <_>
          <internalNodes>
            0 -1 120 1.0025210031017195e-05</internalNodes>
          <leafValues>
            -6.3721168041229248e-01 3.8447907567024231e-01</leafValues></_>
        <_>
          <internalNodes>
            0 -1 195 3.8400264456868172e-03</internalNodes>
          <leafValues>
            2.4042576551437378e-01 -1.0343223810195923e+00</leafValues></_></weakClassifiers></_>
    <!-- stage 5 -->
    <_>
      <maxWeakCount>9</maxWeakCount>
      <stageThreshold>-1.5831024646759033e+00</stageThreshold>
      <weakClassifiers>
        <_>
          <internalNodes>
            0 -1 73 1.8694809079170227e-01</internalNodes>
          <leafValues>
            -8.1269520521163940e-01 6.6883122920989990e-01</leafValues></_>
        <_>
          <internalNodes>
            0 -1 114 -1.1737446300685406e-02</internalNodes>
          <leafValues>
            1.0290168523788452e+00 -3.0009347200393677e-01</leafValues></_>
        <_>
          <internalNodes>
            0 -1 141 3.3430631738156080e-03</internalNodes>
          <leafValues>
            -3.1602156162261963e-01 8.3931279182434082e-01</leafValues></_>
        <_>
          <internalNodes>
            0 -1 37 -3.0072283698245883e-04</internalNodes>
          <leafValues>
            -8.0510818958282471e-01 3.1352517008781433e-01</leafValues></_>
        <_>
          <internalNodes>
            0 -1 5 -1.3486333191394806e-03</internalNodes>
          <leafValues>
            -9.2402887344360352e-01 2.6455414295196533e-01</leafValues></_>
        <_>
          <internalNodes>
            0 -1 9 1.7066036889445968e-05</internalNodes>
          <leafValues>
            -5.2101850509643555e-01 4.8085641860961914e-01</leafValues></_>
        <_>
          <internalNodes>
            0 -1 127 -1.0147192515432835e-03</internalNodes>
          <leafValues>
            -5.9613204002380371e-01 3.4133681654930115e-01</leafValues></_>
        <_>
          <internalNodes>
            0 -1 164 -2.6148970937356353e-04</internalNodes>
          <leafValues>
            -9.6738809347152710e-01 2.4814543128013611e-01</leafValues></_>
        <_>
          <internalNodes>
            0 -1 92 2.5223441421985626e-02</internalNodes>
          <leafValues>
            -5.1052820682525635e-01 4.1469818353652954e-01</leafValues></_></weakClassifiers></_>
    <!-- stage 6 -->
    <_>
      <maxWeakCount>8</maxWeakCount>
      <stageThreshold>-2.1037640571594238e+00</stageThreshold>
      <weakClassifiers>
        <_>
          <internalNodes>
            0 -1 28 -1.0434310883283615e-02</internalNodes>
          <leafValues>
            1.1552766561508179e+00 -7.2865068912506104e-01</leafValues></_>
        <_>
          <internalNodes>
            0 -1 53 -1.5599178150296211e-02</internalNodes>
          <leafValues>
            -9.5005768537521362e-01 3.4782606363296509e-01</leafValues></_>
        <_>
          <internalNodes>
            0 -1 78 -5.4726004600524902e-03</internalNodes>
          <leafValues>
            -1.0042356252670288e+00 2.5673583149909973e-01</leafValues></_>
        <_>
          <internalNodes>
            0 -1 99 6.6994214430451393e-03</internalNodes>
          <leafValues>
            -3.9640551805496216e-01 5.6801402568817139e-01</leafValues></_>
        <_>
          <internalNodes>
            0 -1 95 1.6387284267693758e-03</internalNodes>
          <leafValues>
            -3.2938957214355469e-01 6.5091514587402344e-01</leafValues></_>
        <_>
          <internalNodes>
            0 -1 174 6.3601598143577576e-02</internalNodes>
          <leafValues>
            2.2020798921585083e-01 -1.0763738155364990e+00</leafValues></_>
        <_>
          <internalNodes>
            0 -1 152 1.0827489197254181e-02</internalNodes>
          <leafValues>
            2.2352330386638641e-01 -1.8807269334793091e+00</leafValues></_>
        <_>
          <internalNodes>
            0 -1 191 1.6533444068045355e-05</internalNodes>
          <leafValues>
            -4.7020620107650757e-01 4.0663883090019226e-01</leafValues></_></weakClassifiers></_>
    <!-- stage 7 -->
    <_>
      <maxWeakCount>10</maxWeakCount>
      <stageThreshold>-1.9557994604110718e+00</stageThreshold>
      <weakClassifiers>
        <_>
          <internalNodes>
            0 -1 59 -3.0875774100422859e-02</internalNodes>
          <leafValues>
            6.4259910583496094e-01 -7.6759439706802368e-01</leafValues></_>
        <_>
          <internalNodes>
            0 -1 87 2.0820855570491403e-04</internalNodes>
          <leafValues>
            -6.9081616401672363e-01 4.6999791264533997e-01</leafValues></_>
        <_>
          <internalNodes>
            0 -1 64 6.4162765629589558e-03</internalNodes>
          <leafValues>
            -2.7628007531166077e-01 1.1189830303192139e+00</leafValues></_>
        <_>
          <internalNodes>
            0 -1 7 8.4373438730835915e-03</internalNodes>
          <leafValues>
            -6.1562466621398926e-01 3.5758581757545471e-01</leafValues></_>
        <_>
          <internalNodes>
            0 -1 129 1.1737600289052352e-04</internalNodes>
          <leafValues>
            -6.4940077066421509e-01 3.1594321131706238e-01</leafValues></_>
        <_>
          <internalNodes>
            0 -1 126 4.6006732736714184e-04</internalNodes>
          <leafValues>
            1.9453416764736176e-01 -1.2540173530578613e+00</leafValues></_>
        <_>
          <internalNodes>
            0 -1 23 3.5276334529044107e-05</internalNodes>
          <leafValues>
            -6.9215512275695801e-01 2.4611406028270721e-01</leafValues></_>
        <_>
          <internalNodes>
            0 -1 76 2.3058950318954885e-04</internalNodes>
          <leafValues>
            -4.9158960580825806e-01 3.3479696512222290e-01</leafValues></_>
        <_>
          <internalNodes>
            0 -1 2 3.1503740698099136e-02</internalNodes>
          <leafValues>
            1.2059287726879120e-01 -2.2549922466278076e+00</leafValues></_>
        <_>
          <internalNodes>
            0 -1 43 -3.7819455610588193e-04</internalNodes>
          <leafValues>
            -5.0797086954116821e-01 2.9665851593017578e-01</leafValues></_></weakClassifiers></_>
    <!-- stage 8 -->
    <_>
      <maxWeakCount>11</maxWeakCount>
      <stageThreshold>-2.1083340644836426e+00</stageThreshold>
      <weakClassifiers>
        <_>
          <internalNodes>
            0 -1 52 -5.8517403900623322e-02</internalNodes>
          <leafValues>
            3.2331359386444092e-01 -8.0471897125244141e-01</leafValues></_>
        <_>
          <internalNodes>
            0 -1 75 6.3132368959486485e-03</internalNodes>
          <leafValues>
            -2.9367542266845703e-01 7.9270386695861816e-01</leafValues></_>
        <_>
          <internalNodes>
            0 -1 94 2.2613551467657089e-02</internalNodes>
          <leafValues>
            -5.2936655282974243e-01 4.0307074785232544e-01</leafValues></_>
        <_>
          <internalNodes>
            0 -1 131 -7.4637893703766167e-05</internalNodes>
          <leafValues>
            5.4126602411270142e-01 -5.1601469516754150e-01</leafValues></_>
        <_>
          <internalNodes>
            0 -1 212 1.6867677913978696e-05</internalNodes>
          <leafValues>
            -3.5844475030899048e-01 4.5470508933067322e-01</leafValues></_>
        <_>
          <internalNodes>
            0 -1 55 -2.2784386575222015e-01</internalNodes>
          <leafValues>
            6.8638145923614502e-01 -2.9148024320602417e-01</leafValues></_>
        <_>
          <internalNodes>
            0 -1 70 5.2343204617500305e-02</internalNodes>
          <leafValues>
            -5.1603454351425171e-01 3.7448728084564209e-01</leafValues></_>
        <_>
          <internalNodes>
            0 -1 104 5.0746479246299714e-05</internalNodes>
          <leafValues>
            -6.3115859031677246e-01 3.2395243644714355e-01</leafValues></_>
        <_>
          <internalNodes>
            0 -1 168 2.0585654419846833e-04</internalNodes>
          <leafValues>
            2.7060234546661377e-01 -9.3321985006332397e-01</leafValues></_>
        <_>
          <internalNodes>
            0 -1 19 3.2735042623244226e-05</internalNodes>
          <leafValues>
            -5.0258404016494751e-01 4.0647810697555542e-01</leafValues></_>
        <_>
          <internalNodes>
            0 -1 15 6.7721062805503607e-05</internalNodes>
          <leafValues>
            2.7910479903221130e-01 -8.3837229013442993e-01</leafValues></_></weakClassifiers></_>
    <!-- stage 9 -->
    <_>
      <maxWeakCount>13</maxWeakCount>
      <stageThreshold>-1.7107090950012207e+00</stageThreshold>
      <weakClassifiers>
        <_>
          <internalNodes>
            0 -1 136 -9.2974342405796051e-03</internalNodes>
          <leafValues>
            1.0296194553375244e+00 -6.2685120105743408e-01</leafValues></_>
        <_>
          <internalNodes>
            0 -1 56 -1.7960816621780396e-01</internalNodes>
          <leafValues>
            5.2540922164916992e-01 -4.5063242316246033e-01</leafValues></_>
        <_>
          <internalNodes>
            0 -1 179 3.4392112866044044e-05</internalNodes>
          <leafValues>
            -5.2639949321746826e-01 3.6389067769050598e-01</leafValues></_>
        <_>
          <internalNodes>
            0 -1 190 1.7750560800777748e-05</internalNodes>
          <leafValues>
            -4.2659100890159607e-01 4.0182965993881226e-01</leafValues></_>
        <_>
          <internalNodes>
            0 -1 83 -2.5607747957110405e-03</internalNodes>
          <leafValues>
            3.7441045045852661e-01 -4.5232257246971130e-01</leafValues></_>
        <_>
          <internalNodes>
            0 -1 35 -9.8634016467258334e-05</internalNodes>
          <leafValues>
            2.6583233475685120e-01 -5.3899496793746948e-01</leafValues></_>
        <_>
          <internalNodes>
            0 -1 216 1.9507704564603046e-05</internalNodes>
          <leafValues>
            -2.7434098720550537e-01 5.2380228042602539e-01</leafValues></_>
        <_>
          <internalNodes>
            0 -1 14 4.1960473172366619e-03</internalNodes>
          <leafValues>
            -4.9656975269317627e-01 3.0907422304153442e-01</leafValues></_>
        <_>
          <internalNodes>
            0 -1 74 2.9909995646448806e-05</internalNodes>
          <leafValues>
            -3.8102111220359802e-01 5.1064306497573853e-01</leafValues></_>
        <_>
          <internalNodes>
            0 -1 58 1.7880480736494064e-02</internalNodes>
          <leafValues>
            -4.6151524782180786e-01 3.7346059083938599e-01</leafValues></_>
        <_>
          <internalNodes>
            0 -1 146 -5.2723487897310406e-05</internalNodes>
          <leafValues>
            5.0753778219223022e-01 -3.4219071269035339e-01</leafValues></_>
        <_>
          <internalNodes>
            0 -1 201 -3.4885641653090715e-03</internalNodes>
          <leafValues>
            1.0963464975357056e+00 -2.0092488825321198e-01</leafValues></_>
        <_>
          <internalNodes>
            0 -1 125 -7.1989954449236393e-04</internalNodes>
          <leafValues>
            -8.8934415578842163e-01 2.3061001300811768e-01</leafValues></_></weakClassifiers></_>
    <!-- stage 10 -->
    <_>
      <maxWeakCount>7</maxWeakCount>
      <stageThreshold>-1.7449531555175781e+00</stageThreshold>
      <weakClassifiers>
        <_>
          <internalNodes>
            0 -1 214 1.9213417544960976e-05</internalNodes>
          <leafValues>
            -8.5160303115844727e-01 5.0348383188247681e-01</leafValues></_>
        <_>
          <internalNodes>
            0 -1 156 -9.0471776275080629e-06</internalNodes>
          <leafValues>
            5.3970694541931152e-01 -6.5240061283111572e-01</leafValues></_>
        <_>
          <internalNodes>
            0 -1 33 1.7287287846556865e-05</internalNodes>
          <leafValues>
            -5.0327944755554199e-01 5.0414699316024780e-01</leafValues></_>
        <_>
          <internalNodes>
            0 -1 148 1.7272417608182877e-05</internalNodes>
          <leafValues>
            -4.8875448107719421e-01 4.9836441874504089e-01</leafValues></_>
        <_>
          <internalNodes>
            0 -1 185 5.4857589304447174e-02</internalNodes>
          <leafValues>
            -3.8588711619377136e-01 5.6454098224639893e-01</leafValues></_>
        <_>
          <internalNodes>
            0 -1 69 1.7329526599496603e-05</internalNodes>
          <leafValues>
            -4.4178286194801331e-01 5.5433613061904907e-01</leafValues></_>
        <_>
          <internalNodes>
            0 -1 161 1.6999303625198081e-05</internalNodes>
          <leafValues>
            -3.5879251360893250e-01 7.0467555522918701e-01</leafValues></_></weakClassifiers></_>
    <!-- stage 11 -->
    <_>
      <maxWeakCount>8</maxWeakCount>
      <stageThreshold>-1.5660796165466309e+00</stageThreshold>
      <weakClassifiers>
        <_>
          <internalNodes>
            0 -1 8 8.5241217675502412e-06</internalNodes>
          <leafValues>
            -9.3130767345428467e-01 3.7391853332519531e-01</leafValues></_>
        <_>
          <internalNodes>
            0 -1 22 9.2209220383665524e-06</internalNodes>
          <leafValues>
            -4.0794783830642700e-01 7.0911496877670288e-01</leafValues></_>
        <_>
          <internalNodes>
            0 -1 25 -1.3647842407226563e-01</internalNodes>
          <leafValues>
            1.3924194574356079e+00 -3.2406824827194214e-01</leafValues></_>
        <_>
          <internalNodes>
            0 -1 199 8.5241217675502412e-06</internalNodes>
          <leafValues>
            -4.4720515608787537e-01 5.9442991018295288e-01</leafValues></_>
        <_>
          <internalNodes>
            0 -1 27 1.7013222532114014e-05</internalNodes>
          <leafValues>
            -4.2967125773429871e-01 6.4844053983688354e-01</leafValues></_>
        <_>
          <internalNodes>
            0 -1 117 9.4025299404165708e-06</internalNodes>
          <leafValues>
            -4.1567876935005188e-01 6.2029147148132324e-01</leafValues></_>
        <_>
          <internalNodes>
            0 -1 130 -1.3425374403595924e-02</internalNodes>
          <leafValues>
            9.3373823165893555e-01 -2.4187259376049042e-01</leafValues></_>
        <_>
          <internalNodes>
            0 -1 150 -3.3005396835505962e-04</internalNodes>
          <leafValues>
            5.5356013774871826e-01 -4.6822214126586914e-01</leafValues></_></weakClassifiers></_>
    <!-- stage 12 -->
    <_>
      <maxWeakCount>13</maxWeakCount>
      <stageThreshold>-1.9429363012313843e+00</stageThreshold>
      <weakClassifiers>
        <_>
          <internalNodes>
            0 -1 85 -2.4239070713520050e-01</internalNodes>
          <leafValues>
            1.0824818611145020e+00 -6.0778856277465820e-01</leafValues></_>
        <_>
          <internalNodes>
            0 -1 217 4.0970440750243142e-05</internalNodes>
          <leafValues>
            -7.2165346145629883e-01 3.9946278929710388e-01</leafValues></_>
        <_>
          <internalNodes>
            0 -1 71 1.6696874808985740e-05</internalNodes>
          <leafValues>
            -2.9679903388023376e-01 5.5542057752609253e-01</leafValues></_>
        <_>
          <internalNodes>
            0 -1 140 -2.6841849088668823e-02</internalNodes>
          <leafValues>
            9.6896827220916748e-01 -2.1027797460556030e-01</leafValues></_>
        <_>
          <internalNodes>
            0 -1 215 1.7633728930377401e-05</internalNodes>
          <leafValues>
            -3.3384871482849121e-01 5.0254964828491211e-01</leafValues></_>
        <_>
          <internalNodes>
            0 -1 210 9.2456499114632607e-03</internalNodes>
          <leafValues>
            -1.3463808596134186e-01 1.1601045131683350e+00</leafValues></_>
        <_>
          <internalNodes>
            0 -1 24 -4.0801964700222015e-02</internalNodes>
          <leafValues>
            7.2900789976119995e-01 -2.6806193590164185e-01</leafValues></_>
        <_>
          <internalNodes>
            0 -1 66 1.3071921467781067e-01</internalNodes>
          <leafValues>
            -2.0511409640312195e-01 1.0797630548477173e+00</leafValues></_>
        <_>
          <internalNodes>
            0 -1 189 1.1476027430035174e-04</internalNodes>
          <leafValues>
            -5.8144837617874146e-01 3.1251332163810730e-01</leafValues></_>
        <_>
          <internalNodes>
            0 -1 151 -1.9377574062673375e-05</internalNodes>
          <leafValues>
            5.3356897830963135e-01 -3.0571773648262024e-01</leafValues></_>
        <_>
          <internalNodes>
            0 -1 183 -9.3011340140947141e-06</internalNodes>
          <leafValues>
            4.0916958451271057e-01 -3.6993184685707092e-01</leafValues></_>
        <_>
          <internalNodes>
            0 -1 91 -2.9496010392904282e-02</internalNodes>
          <leafValues>
            6.1021244525909424e-01 -2.4661566317081451e-01</leafValues></_>
        <_>
          <internalNodes>
            0 -1 135 -4.6621216461062431e-04</internalNodes>
          <leafValues>
            -5.6062513589859009e-01 3.2388129830360413e-01</leafValues></_></weakClassifiers></_>
    <!-- stage 13 -->
    <_>
      <maxWeakCount>13</maxWeakCount>
      <stageThreshold>-1.9122775793075562e+00</stageThreshold>
      <weakClassifiers>
        <_>
          <internalNodes>
            0 -1 114 -1.4571560546755791e-02</internalNodes>
          <leafValues>
            7.5991284847259521e-01 -6.6376811265945435e-01</leafValues></_>
        <_>
          <internalNodes>
            0 -1 48 -8.5925266146659851e-02</internalNodes>
          <leafValues>
            7.6100611686706543e-01 -3.2368612289428711e-01</leafValues></_>
        <_>
          <internalNodes>
            0 -1 57 4.6787952305749059e-04</internalNodes>
          <leafValues>
            -4.5725584030151367e-01 3.6972656846046448e-01</leafValues></_>
        <_>
          <internalNodes>
            0 -1 162 5.8110069949179888e-04</internalNodes>
          <leafValues>
            -3.0905428528785706e-01 4.6208682656288147e-01</leafValues></_>
        <_>
          <internalNodes>
            0 -1 89 7.5507699511945248e-04</internalNodes>
          <leafValues>
            -4.9440014362335205e-01 3.0546477437019348e-01</leafValues></_>
        <_>
          <internalNodes>
            0 -1 3 -7.8438213677145541e-05</internalNodes>
          <leafValues>
            -4.3323722481727600e-01 3.3286961913108826e-01</leafValues></_>
        <_>
          <internalNodes>
            0 -1 113 2.7537334244698286e-04</internalNodes>
          <leafValues>
            -3.8030403852462769e-01 4.0306207537651062e-01</leafValues></_>
        <_>
          <internalNodes>
            0 -1 207 8.1551019102334976e-03</internalNodes>
          <leafValues>
            -1.7324493825435638e-01 7.9851198196411133e-01</leafValues></_>
        <_>
          <internalNodes>
            0 -1 79 1.9280109554529190e-02</internalNodes>
          <leafValues>
            1.2630896270275116e-01 -1.5550571680068970e+00</leafValues></_>
        <_>
          <internalNodes>
            0 -1 132 -8.6944637587293983e-06</internalNodes>
          <leafValues>
            3.9233553409576416e-01 -3.5022184252738953e-01</leafValues></_>
        <_>
          <internalNodes>
            0 -1 38 6.8136349320411682e-02</internalNodes>
          <leafValues>
            -3.5699185729026794e-01 4.1018015146255493e-01</leafValues></_>
        <_>
          <internalNodes>
            0 -1 40 3.5388324409723282e-02</internalNodes>
          <leafValues>
            -4.3583056330680847e-01 3.5304209589958191e-01</leafValues></_>
        <_>
          <internalNodes>
            0 -1 157 -6.6036833450198174e-03</internalNodes>
          <leafValues>
            -8.4241843223571777e-01 2.5200644135475159e-01</leafValues></_></weakClassifiers></_>
    <!-- stage 14 -->
    <_>
      <maxWeakCount>12</maxWeakCount>
      <stageThreshold>-1.7940857410430908e+00</stageThreshold>
      <weakClassifiers>
        <_>
          <internalNodes>
            0 -1 67 8.0723222345113754e-03</internalNodes>
          <leafValues>
            -5.6718200445175171e-01 1.4722194671630859e+00</leafValues></_>
        <_>
          <internalNodes>
            0 -1 62 -9.0976208448410034e-02</internalNodes>
          <leafValues>
            5.3309738636016846e-01 -3.3504369854927063e-01</leafValues></_>
        <_>
          <internalNodes>
            0 -1 147 1.0990342125296593e-03</internalNodes>
          <leafValues>
            -4.7937929630279541e-01 3.3067783713340759e-01</leafValues></_>
        <_>
          <internalNodes>
            0 -1 111 -8.2211592234671116e-04</internalNodes>
          <leafValues>
            -7.1836042404174805e-01 2.5066003203392029e-01</leafValues></_>
        <_>
          <internalNodes>
            0 -1 143 2.8878416866064072e-02</internalNodes>
          <leafValues>
            -2.5874722003936768e-01 5.9481716156005859e-01</leafValues></_>
        <_>
          <internalNodes>
            0 -1 31 4.2764186859130859e-02</internalNodes>
          <leafValues>
            -3.3110603690147400e-01 4.9422314763069153e-01</leafValues></_>
        <_>
          <internalNodes>
            0 -1 51 1.0521312651690096e-04</internalNodes>
          <leafValues>
            2.1630696952342987e-01 -6.8397212028503418e-01</leafValues></_>
        <_>
          <internalNodes>
            0 -1 194 2.1240313071757555e-04</internalNodes>
          <leafValues>
            2.0629344880580902e-01 -6.0545158386230469e-01</leafValues></_>
        <_>
          <internalNodes>
            0 -1 0 -5.9645366854965687e-03</internalNodes>
          <leafValues>
            -6.0401803255081177e-01 2.5123307108879089e-01</leafValues></_>
        <_>
          <internalNodes>
            0 -1 30 3.0452404171228409e-03</internalNodes>
          <leafValues>
            -2.8644976019859314e-01 4.7061309218406677e-01</leafValues></_>
        <_>
          <internalNodes>
            0 -1 98 -5.5545277427881956e-04</internalNodes>
          <leafValues>
            -5.2633374929428101e-01 2.6717826724052429e-01</leafValues></_>
        <_>
          <internalNodes>
            0 -1 109 -1.2986620422452688e-03</internalNodes>
          <leafValues>
            -6.8253690004348755e-01 2.1104171872138977e-01</leafValues></_></weakClassifiers></_>
    <!-- stage 15 -->
    <_>
      <maxWeakCount>13</maxWeakCount>
      <stageThreshold>-1.7035447359085083e+00</stageThreshold>
      <weakClassifiers>
        <_>
          <internalNodes>
            0 -1 6 -1.4601532369852066e-02</internalNodes>
          <leafValues>
            1.0956797599792480e+00 -5.8862769603729248e-01</leafValues></_>
        <_>
          <internalNodes>
            0 -1 198 4.3735817598644644e-05</internalNodes>
          <leafValues>
            -5.1726430654525757e-01 3.4707945585250854e-01</leafValues></_>
        <_>
          <internalNodes>
            0 -1 165 9.6722051966935396e-04</internalNodes>
          <leafValues>
            -4.4916656613349915e-01 3.8927367329597473e-01</leafValues></_>
        <_>
          <internalNodes>
            0 -1 29 1.7138645489467308e-05</internalNodes>
          <leafValues>
            -5.2195185422897339e-01 3.2778212428092957e-01</leafValues></_>
        <_>
          <internalNodes>
            0 -1 102 3.6625687032938004e-02</internalNodes>
          <leafValues>
            -1.6752651333808899e-01 1.0211427211761475e+00</leafValues></_>
        <_>
          <internalNodes>
            0 -1 47 -4.4594602659344673e-03</internalNodes>
          <leafValues>
            5.6886237859725952e-01 -2.7217060327529907e-01</leafValues></_>
        <_>
          <internalNodes>
            0 -1 18 1.6256135495495982e-05</internalNodes>
          <leafValues>
            -2.9905584454536438e-01 4.3528020381927490e-01</leafValues></_>
        <_>
          <internalNodes>
            0 -1 193 8.4111641626805067e-05</internalNodes>
          <leafValues>
            -4.3967375159263611e-01 3.2572522759437561e-01</leafValues></_>
        <_>
          <internalNodes>
            0 -1 163 -5.3057726472616196e-04</internalNodes>
          <leafValues>
            -6.2766766548156738e-01 2.5569412112236023e-01</leafValues></_>
        <_>
          <internalNodes>
            0 -1 103 5.1228824304416776e-05</internalNodes>
          <leafValues>
            -4.2605766654014587e-01 3.5571554303169250e-01</leafValues></_>
        <_>
          <internalNodes>
            0 -1 110 7.2415336035192013e-05</internalNodes>
          <leafValues>
            -5.2673411369323730e-01 2.6499861478805542e-01</leafValues></_>
        <_>
          <internalNodes>
            0 -1 176 7.3655028827488422e-03</internalNodes>
          <leafValues>
            -3.2210978865623474e-01 5.1215952634811401e-01</leafValues></_>
        <_>
          <internalNodes>
            0 -1 61 7.0423957367893308e-05</internalNodes>
          <leafValues>
            -6.4240133762359619e-01 2.6582267880439758e-01</leafValues></_></weakClassifiers></_>
    <!-- stage 16 -->
    <_>
      <maxWeakCount>14</maxWeakCount>
      <stageThreshold>-1.8252897262573242e+00</stageThreshold>
      <weakClassifiers>
        <_>
          <internalNodes>
            0 -1 81 -8.5442550480365753e-03</internalNodes>
          <leafValues>
            9.5619374513626099e-01 -5.9452354907989502e-01</leafValues></_>
        <_>
          <internalNodes>
            0 -1 105 1.8050448969006538e-02</internalNodes>
          <leafValues>
            -4.9881330132484436e-01 3.4621602296829224e-01</leafValues></_>
        <_>
          <internalNodes>
            0 -1 123 2.3937588557600975e-03</internalNodes>
          <leafValues>
            -6.2567251920700073e-01 2.3838879168033600e-01</leafValues></_>
        <_>
          <internalNodes>
            0 -1 211 -1.0805156489368528e-04</internalNodes>
          <leafValues>
            -6.2896329164505005e-01 2.7600333094596863e-01</leafValues></_>
        <_>
          <internalNodes>
            0 -1 88 -1.0571095161139965e-02</internalNodes>
          <leafValues>
            8.4095960855484009e-01 -1.8386515974998474e-01</leafValues></_>
        <_>
          <internalNodes>
            0 -1 112 -2.0770245464518666e-04</internalNodes>
          <leafValues>
            -5.4500067234039307e-01 2.9188200831413269e-01</leafValues></_>
        <_>
          <internalNodes>
            0 -1 128 -1.7659459263086319e-02</internalNodes>
          <leafValues>
            6.0494184494018555e-01 -2.1259371936321259e-01</leafValues></_>
        <_>
          <internalNodes>
            0 -1 149 -3.1539628980681300e-04</internalNodes>
          <leafValues>
            4.4068664312362671e-01 -3.1296852231025696e-01</leafValues></_>
        <_>
          <internalNodes>
            0 -1 34 -5.7760148774832487e-04</internalNodes>
          <leafValues>
            -8.0859953165054321e-01 1.8338122963905334e-01</leafValues></_>
        <_>
          <internalNodes>
            0 -1 178 2.3660335500608198e-05</internalNodes>
          <leafValues>
            -3.3374744653701782e-01 3.6560800671577454e-01</leafValues></_>
        <_>
          <internalNodes>
            0 -1 46 -1.8163451459258795e-03</internalNodes>
          <leafValues>
            7.3180055618286133e-01 -2.0746706426143646e-01</leafValues></_>
        <_>
          <internalNodes>
            0 -1 119 8.5685332305729389e-04</internalNodes>
          <leafValues>
            1.8753607571125031e-01 -8.3084851503372192e-01</leafValues></_>
        <_>
          <internalNodes>
            0 -1 197 -5.0634134095162153e-04</internalNodes>
          <leafValues>
            -6.0901117324829102e-01 2.0465108752250671e-01</leafValues></_>
        <_>
          <internalNodes>
            0 -1 158 -5.5662430822849274e-03</internalNodes>
          <leafValues>
            -5.5528277158737183e-01 2.2912128269672394e-01</leafValues></_></weakClassifiers></_>
    <!-- stage 17 -->
    <_>
      <maxWeakCount>15</maxWeakCount>
      <stageThreshold>-1.6247520446777344e+00</stageThreshold>
      <weakClassifiers>
        <_>
          <internalNodes>
            0 -1 101 -1.0429299622774124e-01</internalNodes>
          <leafValues>
            1.8135161697864532e-01 -7.6097524166107178e-01</leafValues></_>
        <_>
          <internalNodes>
            0 -1 169 3.5570992622524500e-03</internalNodes>
          <leafValues>
            -4.7158002853393555e-01 4.3511018157005310e-01</leafValues></_>
        <_>
          <internalNodes>
            0 -1 200 3.5659904824569821e-05</internalNodes>
          <leafValues>
            2.5225499272346497e-01 -5.9447276592254639e-01</leafValues></_>
        <_>
          <internalNodes>
            0 -1 203 -4.2641753680072725e-05</internalNodes>
          <leafValues>
            -5.3022462129592896e-01 2.7068740129470825e-01</leafValues></_>
        <_>
          <internalNodes>
            0 -1 177 -2.2535610696650110e-05</internalNodes>
          <leafValues>
            4.3279445171356201e-01 -3.4999105334281921e-01</leafValues></_>
        <_>
          <internalNodes>
            0 -1 50 -3.1723625957965851e-02</internalNodes>
          <leafValues>
            3.6753675341606140e-01 -3.5623565316200256e-01</leafValues></_>
        <_>
          <internalNodes>
            0 -1 175 3.4597665944602340e-05</internalNodes>
          <leafValues>
            -2.8953066468238831e-01 4.7558233141899109e-01</leafValues></_>
        <_>
          <internalNodes>
            0 -1 208 5.1149714272469282e-04</internalNodes>
          <leafValues>
            1.7515003681182861e-01 -1.0431342124938965e+00</leafValues></_>
        <_>
          <internalNodes>
            0 -1 184 -1.9677748903632164e-02</internalNodes>
          <leafValues>
            -1.2135348320007324e+00 9.8147772252559662e-02</leafValues></_>
        <_>
          <internalNodes>
            0 -1 173 -3.5409950651228428e-03</internalNodes>
          <leafValues>
            3.4061077237129211e-01 -3.5643690824508667e-01</leafValues></_>
        <_>
          <internalNodes>
            0 -1 187 -1.7595131066627800e-04</internalNodes>
          <leafValues>
            3.1736147403717041e-01 -4.0519493818283081e-01</leafValues></_>
        <_>
          <internalNodes>
            0 -1 137 1.5934419352561235e-03</internalNodes>
          <leafValues>
            1.6824859380722046e-01 -1.1508667469024658e+00</leafValues></_>
        <_>
          <internalNodes>
            0 -1 192 9.2170317657291889e-05</internalNodes>
          <leafValues>
            -3.2850509881973267e-01 3.6771813035011292e-01</leafValues></_>
        <_>
          <internalNodes>
            0 -1 134 2.8015472926199436e-03</internalNodes>
          <leafValues>
            -1.4277052879333496e-01 1.2506345510482788e+00</leafValues></_>
        <_>
          <internalNodes>
            0 -1 84 8.2812793552875519e-03</internalNodes>
          <leafValues>
            -5.2829426527023315e-01 2.4916416406631470e-01</leafValues></_></weakClassifiers></_>
    <!-- stage 18 -->
    <_>
      <maxWeakCount>17</maxWeakCount>
      <stageThreshold>-1.5996731519699097e+00</stageThreshold>
      <weakClassifiers>
        <_>
          <internalNodes>
            0 -1 63 9.3785235658288002e-03</internalNodes>
          <leafValues>
            -6.1421197652816772e-01 6.3793528079986572e-01</leafValues></_>
        <_>
          <internalNodes>
            0 -1 154 2.9082337277941406e-05</internalNodes>
          <leafValues>
            -5.6949776411056519e-01 3.0720469355583191e-01</leafValues></_>
        <_>
          <internalNodes>
            0 -1 86 3.5138567909598351e-03</internalNodes>
          <leafValues>
            -2.7981773018836975e-01 5.5751901865005493e-01</leafValues></_>
        <_>
          <internalNodes>
            0 -1 26 1.8826351151801646e-05</internalNodes>
          <leafValues>
            -3.2484242320060730e-01 4.4139111042022705e-01</leafValues></_>
        <_>
          <internalNodes>
            0 -1 188 8.9391651272308081e-06</internalNodes>
          <leafValues>
            -4.5353519916534424e-01 3.1502085924148560e-01</leafValues></_>
        <_>
          <internalNodes>
            0 -1 80 3.7975866347551346e-02</internalNodes>
          <leafValues>
            -5.2201706171035767e-01 2.9798340797424316e-01</leafValues></_>
        <_>
          <internalNodes>
            0 -1 106 1.9909301772713661e-03</internalNodes>
          <leafValues>
            2.4488340318202972e-01 -5.5897778272628784e-01</leafValues></_>
        <_>
          <internalNodes>
            0 -1 170 4.6430056681856513e-04</internalNodes>
          <leafValues>
            -4.9397763609886169e-01 3.0645540356636047e-01</leafValues></_>
        <_>
          <internalNodes>
            0 -1 90 2.8359610587358475e-03</internalNodes>
          <leafValues>
            -3.0364796519279480e-01 3.9353519678115845e-01</leafValues></_>
        <_>
          <internalNodes>
            0 -1 32 2.4904496967792511e-04</internalNodes>
          <leafValues>
            -4.4590002298355103e-01 2.5088393688201904e-01</leafValues></_>
        <_>
          <internalNodes>
            0 -1 17 7.5748026371002197e-02</internalNodes>
          <leafValues>
            -1.3833959400653839e-01 9.1045486927032471e-01</leafValues></_>
        <_>
          <internalNodes>
            0 -1 144 -7.2162563446909189e-04</internalNodes>
          <leafValues>
            -6.4273244142532349e-01 2.0371174812316895e-01</leafValues></_>
        <_>
          <internalNodes>
            0 -1 196 3.5819728509522974e-04</internalNodes>
          <leafValues>
            1.8403020501136780e-01 -6.9323903322219849e-01</leafValues></_>
        <_>
          <internalNodes>
            0 -1 124 4.3050544336438179e-03</internalNodes>
          <leafValues>
            -3.7545746564865112e-01 3.1511133909225464e-01</leafValues></_>
        <_>
          <internalNodes>
            0 -1 60 7.5281672179698944e-03</internalNodes>
          <leafValues>
            -2.6404190063476563e-01 4.6216556429862976e-01</leafValues></_>
        <_>
          <internalNodes>
            0 -1 16 1.7065998166799545e-02</internalNodes>
          <leafValues>
            1.3858239352703094e-01 -9.8440146446228027e-01</leafValues></_>
        <_>
          <internalNodes>
            0 -1 121 2.3992219939827919e-03</internalNodes>
          <leafValues>
            -2.8420871496200562e-01 3.9711567759513855e-01</leafValues></_></weakClassifiers></_>
    <!-- stage 19 -->
    <_>
      <maxWeakCount>17</maxWeakCount>
      <stageThreshold>-1.7191365957260132e+00</stageThreshold>
      <weakClassifiers>
        <_>
          <internalNodes>
            0 -1 145 -6.4101014286279678e-03</internalNodes>
          <leafValues>
            8.8077282905578613e-01 -5.7391315698623657e-01</leafValues></_>
        <_>
          <internalNodes>
            0 -1 54 5.5083064362406731e-03</internalNodes>
          <leafValues>
            -4.2759910225868225e-01 3.4436470270156860e-01</leafValues></_>
        <_>
          <internalNodes>
            0 -1 49 7.4154838919639587e-02</internalNodes>
          <leafValues>
            -3.6417725682258606e-01 3.9006456732749939e-01</leafValues></_>
        <_>
          <internalNodes>
            0 -1 160 -8.1186241004616022e-04</internalNodes>
          <leafValues>
            -3.6568316817283630e-01 2.9324367642402649e-01</leafValues></_>
        <_>
          <internalNodes>
            0 -1 182 1.9889705072273500e-05</internalNodes>
          <leafValues>
            -3.2072684168815613e-01 3.6171722412109375e-01</leafValues></_>
        <_>
          <internalNodes>
            0 -1 205 4.8558154958300292e-05</internalNodes>
          <leafValues>
            -3.4333020448684692e-01 3.3388915657997131e-01</leafValues></_>
        <_>
          <internalNodes>
            0 -1 139 9.8904292099177837e-04</internalNodes>
          <leafValues>
            -2.0085971057415009e-01 5.4445624351501465e-01</leafValues></_>
        <_>
          <internalNodes>
            0 -1 72 6.7192471760790795e-05</internalNodes>
          <leafValues>
            -4.0334704518318176e-01 3.1394353508949280e-01</leafValues></_>
        <_>
          <internalNodes>
            0 -1 166 3.7964724469929934e-04</internalNodes>
          <leafValues>
            2.0854862034320831e-01 -5.4155868291854858e-01</leafValues></_>
        <_>
          <internalNodes>
            0 -1 181 -3.9789022412151098e-04</internalNodes>
          <leafValues>
            -7.0842176675796509e-01 1.7077784240245819e-01</leafValues></_>
        <_>
          <internalNodes>
            0 -1 10 1.2743148021399975e-02</internalNodes>
          <leafValues>
            1.2908145785331726e-01 -1.0267974138259888e+00</leafValues></_>
        <_>
          <internalNodes>
            0 -1 4 1.8919992726296186e-03</internalNodes>
          <leafValues>
            -5.9269714355468750e-01 2.3164418339729309e-01</leafValues></_>
        <_>
          <internalNodes>
            0 -1 108 3.4590346331242472e-05</internalNodes>
          <leafValues>
            -3.4826669096946716e-01 2.9177737236022949e-01</leafValues></_>
        <_>
          <internalNodes>
            0 -1 100 2.3313015699386597e-03</internalNodes>
          <leafValues>
            -3.7022864818572998e-01 3.6466586589813232e-01</leafValues></_>
        <_>
          <internalNodes>
            0 -1 77 -1.5978718874976039e-03</internalNodes>
          <leafValues>
            5.6777739524841309e-01 -2.2117817401885986e-01</leafValues></_>
        <_>
          <internalNodes>
            0 -1 167 -4.9845676403492689e-04</internalNodes>
          <leafValues>
            -8.1875073909759521e-01 1.5474276244640350e-01</leafValues></_>
        <_>
          <internalNodes>
            0 -1 186 1.7468364603701048e-05</internalNodes>
          <leafValues>
            -3.4300988912582397e-01 3.3021387457847595e-01</leafValues></_></weakClassifiers></_></stages>
  <features>
    <_>
      <rects>
        <_>
          0 0 1 24 -1.</_>
        <_>
          0 8 1 8 3.</_></rects>
      <tilted>0</tilted></_>
    <_>
      <rects>
        <_>
          0 0 1 32 -1.</_>
        <_>
          0 16 1 16 2.</_></rects>
      <tilted>0</tilted></_>
    <_>
      <rects>
        <_>
          0 0 9 28 -1.</_>
        <_>
          3 0 3 28 3.</_></rects>
      <tilted>0</tilted></_>
    <_>
      <rects>
        <_>
          0 1 31 6 -1.</_>
        <_>
          0 3 31 2 3.</_></rects>
      <tilted>0</tilted></_>
    <_>
      <rects>
        <_>
          0 2 1 30 -1.</_>
        <_>
          0 17 1 15 2.</_></rects>
      <tilted>0</tilted></_>
    <_>
      <rects>
        <_>
          0 2 4 6 -1.</_>
        <_>
          0 4 4 2 3.</_></rects>
      <tilted>0</tilted></_>
    <_>
      <rects>
        <_>
          0 4 2 20 -1.</_>
        <_>
          1 4 1 20 2.</_></rects>
      <tilted>0</tilted></_>
    <_>
      <rects>
        <_>
          0 4 32 9 -1.</_>
        <_>
          0 7 32 3 3.</_></rects>
      <tilted>0</tilted></_>
    <_>
      <rects>
        <_>
          0 5 1 2 -1.</_>
        <_>
          0 6 1 1 2.</_></rects>
      <tilted>0</tilted></_>
    <_>
      <rects>
        <_>
          0 5 1 4 -1.</_>
        <_>
          0 7 1 2 2.</_></rects>
      <tilted>0</tilted></_>
    <_>
      <rects>
        <_>
          0 5 1 22 -1.</_>
        <_>
          0 16 1 11 2.</_></rects>
      <tilted>0</tilted></_>
    <_>
      <rects>
        <_>
          0 6 1 16 -1.</_>
        <_>
          0 14 1 8 2.</_></rects>
      <tilted>0</tilted></_>
    <_>
      <rects>
        <_>
          0 7 1 6 -1.</_>
        <_>
          0 10 1 3 2.</_></rects>
      <tilted>0</tilted></_>
    <_>
      <rects>
        <_>
          0 7 1 9 -1.</_>
        <_>
          0 10 1 3 3.</_></rects>
      <tilted>0</tilted></_>
    <_>
      <rects>
        <_>
          0 7 19 9 -1.</_>
        <_>
          0 10 19 3 3.</_></rects>
      <tilted>0</tilted></_>
    <_>
      <rects>
        <_>
          0 8 2 9 -1.</_>
        <_>
          1 8 1 9 2.</_></rects>
      <tilted>0</tilted></_>
    <_>
      <rects>
        <_>
          0 8 9 19 -1.</_>
        <_>
          3 8 3 19 3.</_></rects>
      <tilted>0</tilted></_>
    <_>
      <rects>
        <_>
          0 9 24 15 -1.</_>
        <_>
          0 14 24 5 3.</_></rects>
      <tilted>0</tilted></_>
    <_>
      <rects>
        <_>
          0 10 1 2 -1.</_>
        <_>
          0 11 1 1 2.</_></rects>
      <tilted>0</tilted></_>
    <_>
      <rects>
        <_>
          0 10 1 4 -1.</_>
        <_>
          0 12 1 2 2.</_></rects>
      <tilted>0</tilted></_>
    <_>
      <rects>
        <_>
          0 11 1 2 -1.</_>
        <_>
          0 12 1 1 2.</_></rects>
      <tilted>0</tilted></_>
    <_>
      <rects>
        <_>
          0 11 31 18 -1.</_>
        <_>
          0 20 31 9 2.</_></rects>
      <tilted>0</tilted></_>
    <_>
      <rects>
        <_>
          0 12 1 2 -1.</_>
        <_>
          0 13 1 1 2.</_></rects>
      <tilted>0</tilted></_>
    <_>
      <rects>
        <_>
          0 12 1 14 -1.</_>
        <_>
          0 19 1 7 2.</_></rects>
      <tilted>0</tilted></_>
    <_>
      <rects>
        <_>
          0 12 30 6 -1.</_>
        <_>
          0 14 30 2 3.</_></rects>
      <tilted>0</tilted></_>
    <_>
      <rects>
        <_>
          0 12 31 9 -1.</_>
        <_>
          0 15 31 3 3.</_></rects>
      <tilted>0</tilted></_>
    <_>
      <rects>
        <_>
          0 13 1 2 -1.</_>
        <_>
          0 14 1 1 2.</_></rects>
      <tilted>0</tilted></_>
    <_>
      <rects>
        <_>
          0 14 1 2 -1.</_>
        <_>
          0 15 1 1 2.</_></rects>
      <tilted>0</tilted></_>
    <_>
      <rects>
        <_>
          0 14 26 3 -1.</_>
        <_>
          0 15 26 1 3.</_></rects>
      <tilted>0</tilted></_>
    <_>
      <rects>
        <_>
          0 15 1 4 -1.</_>
        <_>
          0 17 1 2 2.</_></rects>
      <tilted>0</tilted></_>
    <_>
      <rects>
        <_>
          0 15 28 3 -1.</_>
        <_>
          0 16 28 1 3.</_></rects>
      <tilted>0</tilted></_>
    <_>
      <rects>
        <_>
          0 16 25 9 -1.</_>
        <_>
          0 19 25 3 3.</_></rects>
      <tilted>0</tilted></_>
    <_>
      <rects>
        <_>
          0 17 1 8 -1.</_>
        <_>
          0 21 1 4 2.</_></rects>
      <tilted>0</tilted></_>
    <_>
      <rects>
        <_>
          0 18 2 2 -1.</_>
        <_>
          0 19 2 1 2.</_></rects>
      <tilted>0</tilted></_>
    <_>
      <rects>
        <_>
          0 19 4 3 -1.</_>
        <_>
          0 20 4 1 3.</_></rects>
      <tilted>0</tilted></_>
    <_>
      <rects>
        <_>
          0 27 10 5 -1.</_>
        <_>
          5 27 5 5 2.</_></rects>
      <tilted>0</tilted></_>
    <_>
      <rects>
        <_>
          0 28 28 4 -1.</_>
        <_>
          14 28 14 4 2.</_></rects>
      <tilted>0</tilted></_>
    <_>
      <rects>
        <_>
          0 30 9 2 -1.</_>
        <_>
          0 31 9 1 2.</_></rects>
      <tilted>0</tilted></_>
    <_>
      <rects>
        <_>
          1 0 26 18 -1.</_>
        <_>
          14 0 13 18 2.</_></rects>
      <tilted>0</tilted></_>
    <_>
      <rects>
        <_>
          1 2 20 6 -1.</_>
        <_>
          1 4 20 2 3.</_></rects>
      <tilted>0</tilted></_>
    <_>
      <rects>
        <_>
          1 4 29 12 -1.</_>
        <_>
          1 8 29 4 3.</_></rects>
      <tilted>0</tilted></_>
    <_>
      <rects>
        <_>
          1 6 23 18 -1.</_>
        <_>
          1 12 23 6 3.</_></rects>
      <tilted>0</tilted></_>
    <_>
      <rects>
        <_>
          1 7 31 18 -1.</_>
        <_>
          1 13 31 6 3.</_></rects>
      <tilted>0</tilted></_>
    <_>
      <rects>
        <_>
          1 9 6 15 -1.</_>
        <_>
          3 9 2 15 3.</_></rects>
      <tilted>0</tilted></_>
    <_>
      <rects>
        <_>
          1 9 16 22 -1.</_>
        <_>
          1 9 8 11 2.</_>
        <_>
          9 20 8 11 2.</_></rects>
      <tilted>0</tilted></_>
    <_>
      <rects>
        <_>
          1 10 20 6 -1.</_>
        <_>
          11 10 10 6 2.</_></rects>
      <tilted>0</tilted></_>
    <_>
      <rects>
        <_>
          1 11 3 7 -1.</_>
        <_>
          2 11 1 7 3.</_></rects>
      <tilted>0</tilted></_>
    <_>
      <rects>
        <_>
          1 11 12 4 -1.</_>
        <_>
          1 11 6 2 2.</_>
        <_>
          7 13 6 2 2.</_></rects>
      <tilted>0</tilted></_>
    <_>
      <rects>
        <_>
          1 12 22 12 -1.</_>
        <_>
          1 16 22 4 3.</_></rects>
      <tilted>0</tilted></_>
    <_>
      <rects>
        <_>
          1 15 23 8 -1.</_>
        <_>
          1 19 23 4 2.</_></rects>
      <tilted>0</tilted></_>
    <_>
      <rects>
        <_>
          1 16 24 16 -1.</_>
        <_>
          9 16 8 16 3.</_></rects>
      <tilted>0</tilted></_>
    <_>
      <rects>
        <_>
          1 19 1 3 -1.</_>
        <_>
          1 20 1 1 3.</_></rects>
      <tilted>0</tilted></_>
    <_>
      <rects>
        <_>
          1 24 30 6 -1.</_>
        <_>
          11 24 10 6 3.</_></rects>
      <tilted>0</tilted></_>
    <_>
      <rects>
        <_>
          1 24 14 8 -1.</_>
        <_>
          1 28 14 4 2.</_></rects>
      <tilted>0</tilted></_>
    <_>
      <rects>
        <_>
          1 26 31 6 -1.</_>
        <_>
          1 29 31 3 2.</_></rects>
      <tilted>0</tilted></_>
    <_>
      <rects>
        <_>
          2 1 22 27 -1.</_>
        <_>
          2 10 22 9 3.</_></rects>
      <tilted>0</tilted></_>
    <_>
      <rects>
        <_>
          2 2 23 30 -1.</_>
        <_>
          2 12 23 10 3.</_></rects>
      <tilted>0</tilted></_>
    <_>
      <rects>
        <_>
          2 4 16 2 -1.</_>
        <_>
          2 5 16 1 2.</_></rects>
      <tilted>0</tilted></_>
    <_>
      <rects>
        <_>
          2 13 20 8 -1.</_>
        <_>
          12 13 10 8 2.</_></rects>
      <tilted>0</tilted></_>
    <_>
      <rects>
        <_>
          2 13 20 6 -1.</_>
        <_>
          2 15 20 2 3.</_></rects>
      <tilted>0</tilted></_>
    <_>
      <rects>
        <_>
          2 16 10 10 -1.</_>
        <_>
          2 16 5 5 2.</_>
        <_>
          7 21 5 5 2.</_></rects>
      <tilted>0</tilted></_>
    <_>
      <rects>
        <_>
          2 20 22 6 -1.</_>
        <_>
          2 22 22 2 3.</_></rects>
      <tilted>0</tilted></_>
    <_>
      <rects>
        <_>
          2 21 30 10 -1.</_>
        <_>
          12 21 10 10 3.</_></rects>
      <tilted>0</tilted></_>
    <_>
      <rects>
        <_>
          3 4 3 17 -1.</_>
        <_>
          4 4 1 17 3.</_></rects>
      <tilted>0</tilted></_>
    <_>
      <rects>
        <_>
          3 4 3 20 -1.</_>
        <_>
          4 4 1 20 3.</_></rects>
      <tilted>0</tilted></_>
    <_>
      <rects>
        <_>
          3 6 23 18 -1.</_>
        <_>
          3 12 23 6 3.</_></rects>
      <tilted>0</tilted></_>
    <_>
      <rects>
        <_>
          3 7 26 21 -1.</_>
        <_>
          3 14 26 7 3.</_></rects>
      <tilted>0</tilted></_>
    <_>
      <rects>
        <_>
          3 11 3 6 -1.</_>
        <_>
          4 11 1 6 3.</_></rects>
      <tilted>0</tilted></_>
    <_>
      <rects>
        <_>
          3 16 14 1 -1.</_>
        <_>
          10 16 7 1 2.</_></rects>
      <tilted>0</tilted></_>
    <_>
      <rects>
        <_>
          3 28 1 2 -1.</_>
        <_>
          3 29 1 1 2.</_></rects>
      <tilted>0</tilted></_>
    <_>
      <rects>
        <_>
          4 1 27 17 -1.</_>
        <_>
          13 1 9 17 3.</_></rects>
      <tilted>0</tilted></_>
    <_>
      <rects>
        <_>
          4 7 1 2 -1.</_>
        <_>
          4 8 1 1 2.</_></rects>
      <tilted>0</tilted></_>
    <_>
      <rects>
        <_>
          4 7 10 2 -1.</_>
        <_>
          4 8 10 1 2.</_></rects>
      <tilted>0</tilted></_>
    <_>
      <rects>
        <_>
          4 10 24 22 -1.</_>
        <_>
          4 21 24 11 2.</_></rects>
      <tilted>0</tilted></_>
    <_>
      <rects>
        <_>
          4 12 5 2 -1.</_>
        <_>
          4 13 5 1 2.</_></rects>
      <tilted>0</tilted></_>
    <_>
      <rects>
        <_>
          4 12 25 3 -1.</_>
        <_>
          4 13 25 1 3.</_></rects>
      <tilted>0</tilted></_>
    <_>
      <rects>
        <_>
          4 30 28 2 -1.</_>
        <_>
          18 30 14 2 2.</_></rects>
      <tilted>0</tilted></_>
    <_>
      <rects>
        <_>
          5 0 1 10 -1.</_>
        <_>
          5 5 1 5 2.</_></rects>
      <tilted>0</tilted></_>
    <_>
      <rects>
        <_>
          5 0 9 7 -1.</_>
        <_>
          8 0 3 7 3.</_></rects>
      <tilted>0</tilted></_>
    <_>
      <rects>
        <_>
          5 0 6 14 -1.</_>
        <_>
          8 0 3 14 2.</_></rects>
      <tilted>0</tilted></_>
    <_>
      <rects>
        <_>
          5 1 27 15 -1.</_>
        <_>
          5 6 27 5 3.</_></rects>
      <tilted>0</tilted></_>
    <_>
      <rects>
        <_>
          5 2 3 19 -1.</_>
        <_>
          6 2 1 19 3.</_></rects>
      <tilted>0</tilted></_>
    <_>
      <rects>
        <_>
          5 2 12 14 -1.</_>
        <_>
          9 2 4 14 3.</_></rects>
      <tilted>0</tilted></_>
    <_>
      <rects>
        <_>
          5 6 12 12 -1.</_>
        <_>
          9 6 4 12 3.</_></rects>
      <tilted>0</tilted></_>
    <_>
      <rects>
        <_>
          5 7 21 9 -1.</_>
        <_>
          12 7 7 9 3.</_></rects>
      <tilted>0</tilted></_>
    <_>
      <rects>
        <_>
          5 11 27 12 -1.</_>
        <_>
          5 15 27 4 3.</_></rects>
      <tilted>0</tilted></_>
    <_>
      <rects>
        <_>
          5 15 18 3 -1.</_>
        <_>
          5 16 18 1 3.</_></rects>
      <tilted>0</tilted></_>
    <_>
      <rects>
        <_>
          5 15 23 3 -1.</_>
        <_>
          5 16 23 1 3.</_></rects>
      <tilted>0</tilted></_>
    <_>
      <rects>
        <_>
          5 16 25 3 -1.</_>
        <_>
          5 17 25 1 3.</_></rects>
      <tilted>0</tilted></_>
    <_>
      <rects>
        <_>
          5 18 9 13 -1.</_>
        <_>
          8 18 3 13 3.</_></rects>
      <tilted>0</tilted></_>
    <_>
      <rects>
        <_>
          5 23 21 5 -1.</_>
        <_>
          12 23 7 5 3.</_></rects>
      <tilted>0</tilted></_>
    <_>
      <rects>
        <_>
          5 26 24 3 -1.</_>
        <_>
          13 26 8 3 3.</_></rects>
      <tilted>0</tilted></_>
    <_>
      <rects>
        <_>
          6 7 21 18 -1.</_>
        <_>
          13 7 7 18 3.</_></rects>
      <tilted>0</tilted></_>
    <_>
      <rects>
        <_>
          6 10 21 15 -1.</_>
        <_>
          6 15 21 5 3.</_></rects>
      <tilted>0</tilted></_>
    <_>
      <rects>
        <_>
          6 14 21 12 -1.</_>
        <_>
          13 14 7 12 3.</_></rects>
      <tilted>0</tilted></_>
    <_>
      <rects>
        <_>
          6 15 10 3 -1.</_>
        <_>
          6 16 10 1 3.</_></rects>
      <tilted>0</tilted></_>
    <_>
      <rects>
        <_>
          6 23 9 5 -1.</_>
        <_>
          9 23 3 5 3.</_></rects>
      <tilted>0</tilted></_>
    <_>
      <rects>
        <_>
          6 29 26 3 -1.</_>
        <_>
          19 29 13 3 2.</_></rects>
      <tilted>0</tilted></_>
    <_>
      <rects>
        <_>
          6 29 19 3 -1.</_>
        <_>
          6 30 19 1 3.</_></rects>
      <tilted>0</tilted></_>
    <_>
      <rects>
        <_>
          6 31 26 1 -1.</_>
        <_>
          19 31 13 1 2.</_></rects>
      <tilted>0</tilted></_>
    <_>
      <rects>
        <_>
          7 0 4 12 -1.</_>
        <_>
          7 4 4 4 3.</_></rects>
      <tilted>0</tilted></_>
    <_>
      <rects>
        <_>
          7 6 25 12 -1.</_>
        <_>
          7 12 25 6 2.</_></rects>
      <tilted>0</tilted></_>
    <_>
      <rects>
        <_>
          7 11 21 6 -1.</_>
        <_>
          7 13 21 2 3.</_></rects>
      <tilted>0</tilted></_>
    <_>
      <rects>
        <_>
          7 17 3 15 -1.</_>
        <_>
          8 17 1 15 3.</_></rects>
      <tilted>0</tilted></_>
    <_>
      <rects>
        <_>
          7 24 9 4 -1.</_>
        <_>
          10 24 3 4 3.</_></rects>
      <tilted>0</tilted></_>
    <_>
      <rects>
        <_>
          8 1 18 12 -1.</_>
        <_>
          8 5 18 4 3.</_></rects>
      <tilted>0</tilted></_>
    <_>
      <rects>
        <_>
          8 2 9 16 -1.</_>
        <_>
          11 2 3 16 3.</_></rects>
      <tilted>0</tilted></_>
    <_>
      <rects>
        <_>
          8 4 9 18 -1.</_>
        <_>
          11 4 3 18 3.</_></rects>
      <tilted>0</tilted></_>
    <_>
      <rects>
        <_>
          8 8 5 2 -1.</_>
        <_>
          8 9 5 1 2.</_></rects>
      <tilted>0</tilted></_>
    <_>
      <rects>
        <_>
          8 21 23 6 -1.</_>
        <_>
          8 23 23 2 3.</_></rects>
      <tilted>0</tilted></_>
    <_>
      <rects>
        <_>
          8 22 22 6 -1.</_>
        <_>
          8 24 22 2 3.</_></rects>
      <tilted>0</tilted></_>
    <_>
      <rects>
        <_>
          8 25 9 4 -1.</_>
        <_>
          11 25 3 4 3.</_></rects>
      <tilted>0</tilted></_>
    <_>
      <rects>
        <_>
          8 26 15 3 -1.</_>
        <_>
          8 27 15 1 3.</_></rects>
      <tilted>0</tilted></_>
    <_>
      <rects>
        <_>
          8 29 15 3 -1.</_>
        <_>
          13 29 5 3 3.</_></rects>
      <tilted>0</tilted></_>
    <_>
      <rects>
        <_>
          8 31 15 1 -1.</_>
        <_>
          13 31 5 1 3.</_></rects>
      <tilted>0</tilted></_>
    <_>
      <rects>
        <_>
          9 2 14 14 -1.</_>
        <_>
          9 9 14 7 2.</_></rects>
      <tilted>0</tilted></_>
    <_>
      <rects>
        <_>
          9 2 17 18 -1.</_>
        <_>
          9 8 17 6 3.</_></rects>
      <tilted>0</tilted></_>
    <_>
      <rects>
        <_>
          9 5 3 2 -1.</_>
        <_>
          10 5 1 2 3.</_></rects>
      <tilted>0</tilted></_>
    <_>
      <rects>
        <_>
          9 5 15 12 -1.</_>
        <_>
          9 11 15 6 2.</_></rects>
      <tilted>0</tilted></_>
    <_>
      <rects>
        <_>
          9 22 9 2 -1.</_>
        <_>
          12 22 3 2 3.</_></rects>
      <tilted>0</tilted></_>
    <_>
      <rects>
        <_>
          9 24 6 4 -1.</_>
        <_>
          11 24 2 4 3.</_></rects>
      <tilted>0</tilted></_>
    <_>
      <rects>
        <_>
          10 0 4 9 -1.</_>
        <_>
          10 3 4 3 3.</_></rects>
      <tilted>0</tilted></_>
    <_>
      <rects>
        <_>
          10 2 14 18 -1.</_>
        <_>
          10 8 14 6 3.</_></rects>
      <tilted>0</tilted></_>
    <_>
      <rects>
        <_>
          10 5 12 7 -1.</_>
        <_>
          14 5 4 7 3.</_></rects>
      <tilted>0</tilted></_>
    <_>
      <rects>
        <_>
          10 7 22 24 -1.</_>
        <_>
          21 7 11 24 2.</_></rects>
      <tilted>0</tilted></_>
    <_>
      <rects>
        <_>
          10 20 12 2 -1.</_>
        <_>
          14 20 4 2 3.</_></rects>
      <tilted>0</tilted></_>
    <_>
      <rects>
        <_>
          10 21 2 4 -1.</_>
        <_>
          11 21 1 4 2.</_></rects>
      <tilted>0</tilted></_>
    <_>
      <rects>
        <_>
          10 23 19 6 -1.</_>
        <_>
          10 25 19 2 3.</_></rects>
      <tilted>0</tilted></_>
    <_>
      <rects>
        <_>
          11 0 6 21 -1.</_>
        <_>
          13 0 2 21 3.</_></rects>
      <tilted>0</tilted></_>
    <_>
      <rects>
        <_>
          11 5 12 7 -1.</_>
        <_>
          15 5 4 7 3.</_></rects>
      <tilted>0</tilted></_>
    <_>
      <rects>
        <_>
          11 9 6 14 -1.</_>
        <_>
          13 9 2 14 3.</_></rects>
      <tilted>0</tilted></_>
    <_>
      <rects>
        <_>
          11 10 4 20 -1.</_>
        <_>
          13 10 2 20 2.</_></rects>
      <tilted>0</tilted></_>
    <_>
      <rects>
        <_>
          11 12 4 1 -1.</_>
        <_>
          13 12 2 1 2.</_></rects>
      <tilted>0</tilted></_>
    <_>
      <rects>
        <_>
          11 12 2 3 -1.</_>
        <_>
          11 13 2 1 3.</_></rects>
      <tilted>0</tilted></_>
    <_>
      <rects>
        <_>
          11 13 3 3 -1.</_>
        <_>
          12 13 1 3 3.</_></rects>
      <tilted>0</tilted></_>
    <_>
      <rects>
        <_>
          11 24 9 3 -1.</_>
        <_>
          14 24 3 3 3.</_></rects>
      <tilted>0</tilted></_>
    <_>
      <rects>
        <_>
          11 31 9 1 -1.</_>
        <_>
          14 31 3 1 3.</_></rects>
      <tilted>0</tilted></_>
    <_>
      <rects>
        <_>
          12 0 8 1 -1.</_>
        <_>
          16 0 4 1 2.</_></rects>
      <tilted>0</tilted></_>
    <_>
      <rects>
        <_>
          12 0 5 32 -1.</_>
        <_>
          12 16 5 16 2.</_></rects>
      <tilted>0</tilted></_>
    <_>
      <rects>
        <_>
          12 11 1 12 -1.</_>
        <_>
          12 15 1 4 3.</_></rects>
      <tilted>0</tilted></_>
    <_>
      <rects>
        <_>
          12 13 6 19 -1.</_>
        <_>
          14 13 2 19 3.</_></rects>
      <tilted>0</tilted></_>
    <_>
      <rects>
        <_>
          12 13 11 3 -1.</_>
        <_>
          12 14 11 1 3.</_></rects>
      <tilted>0</tilted></_>
    <_>
      <rects>
        <_>
          12 15 9 1 -1.</_>
        <_>
          15 15 3 1 3.</_></rects>
      <tilted>0</tilted></_>
    <_>
      <rects>
        <_>
          12 18 10 14 -1.</_>
        <_>
          12 25 10 7 2.</_></rects>
      <tilted>0</tilted></_>
    <_>
      <rects>
        <_>
          12 22 20 3 -1.</_>
        <_>
          12 23 20 1 3.</_></rects>
      <tilted>0</tilted></_>
    <_>
      <rects>
        <_>
          12 31 6 1 -1.</_>
        <_>
          14 31 2 1 3.</_></rects>
      <tilted>0</tilted></_>
    <_>
      <rects>
        <_>
          13 13 2 10 -1.</_>
        <_>
          14 13 1 10 2.</_></rects>
      <tilted>0</tilted></_>
    <_>
      <rects>
        <_>
          13 20 15 7 -1.</_>
        <_>
          18 20 5 7 3.</_></rects>
      <tilted>0</tilted></_>
    <_>
      <rects>
        <_>
          13 25 1 6 -1.</_>
        <_>
          13 27 1 2 3.</_></rects>
      <tilted>0</tilted></_>
    <_>
      <rects>
        <_>
          14 4 2 20 -1.</_>
        <_>
          15 4 1 20 2.</_></rects>
      <tilted>0</tilted></_>
    <_>
      <rects>
        <_>
          14 11 2 17 -1.</_>
        <_>
          15 11 1 17 2.</_></rects>
      <tilted>0</tilted></_>
    <_>
      <rects>
        <_>
          14 15 2 2 -1.</_>
        <_>
          14 15 1 1 2.</_>
        <_>
          15 16 1 1 2.</_></rects>
      <tilted>0</tilted></_>
    <_>
      <rects>
        <_>
          15 0 9 10 -1.</_>
        <_>
          18 0 3 10 3.</_></rects>
      <tilted>0</tilted></_>
    <_>
      <rects>
        <_>
          15 2 6 11 -1.</_>
        <_>
          18 2 3 11 2.</_></rects>
      <tilted>0</tilted></_>
    <_>
      <rects>
        <_>
          15 19 4 6 -1.</_>
        <_>
          15 21 4 2 3.</_></rects>
      <tilted>0</tilted></_>
    <_>
      <rects>
        <_>
          15 21 17 6 -1.</_>
        <_>
          15 23 17 2 3.</_></rects>
      <tilted>0</tilted></_>
    <_>
      <rects>
        <_>
          15 23 1 4 -1.</_>
        <_>
          15 25 1 2 2.</_></rects>
      <tilted>0</tilted></_>
    <_>
      <rects>
        <_>
          16 3 1 18 -1.</_>
        <_>
          16 12 1 9 2.</_></rects>
      <tilted>0</tilted></_>
    <_>
      <rects>
        <_>
          16 3 1 27 -1.</_>
        <_>
          16 12 1 9 3.</_></rects>
      <tilted>0</tilted></_>
    <_>
      <rects>
        <_>
          16 5 9 13 -1.</_>
        <_>
          19 5 3 13 3.</_></rects>
      <tilted>0</tilted></_>
    <_>
      <rects>
        <_>
          16 8 1 12 -1.</_>
        <_>
          16 12 1 4 3.</_></rects>
      <tilted>0</tilted></_>
    <_>
      <rects>
        <_>
          16 11 6 2 -1.</_>
        <_>
          16 12 6 1 2.</_></rects>
      <tilted>0</tilted></_>
    <_>
      <rects>
        <_>
          16 12 2 16 -1.</_>
        <_>
          16 12 1 8 2.</_>
        <_>
          17 20 1 8 2.</_></rects>
      <tilted>0</tilted></_>
    <_>
      <rects>
        <_>
          16 14 1 9 -1.</_>
        <_>
          16 17 1 3 3.</_></rects>
      <tilted>0</tilted></_>
    <_>
      <rects>
        <_>
          16 18 1 6 -1.</_>
        <_>
          16 20 1 2 3.</_></rects>
      <tilted>0</tilted></_>
    <_>
      <rects>
        <_>
          16 18 9 6 -1.</_>
        <_>
          16 20 9 2 3.</_></rects>
      <tilted>0</tilted></_>
    <_>
      <rects>
        <_>
          16 19 1 6 -1.</_>
        <_>
          16 21 1 2 3.</_></rects>
      <tilted>0</tilted></_>
    <_>
      <rects>
        <_>
          16 19 2 6 -1.</_>
        <_>
          16 21 2 2 3.</_></rects>
      <tilted>0</tilted></_>
    <_>
      <rects>
        <_>
          16 23 4 1 -1.</_>
        <_>
          18 23 2 1 2.</_></rects>
      <tilted>0</tilted></_>
    <_>
      <rects>
        <_>
          16 23 15 6 -1.</_>
        <_>
          16 26 15 3 2.</_></rects>
      <tilted>0</tilted></_>
    <_>
      <rects>
        <_>
          16 27 15 3 -1.</_>
        <_>
          21 27 5 3 3.</_></rects>
      <tilted>0</tilted></_>
    <_>
      <rects>
        <_>
          17 0 2 32 -1.</_>
        <_>
          17 16 2 16 2.</_></rects>
      <tilted>0</tilted></_>
    <_>
      <rects>
        <_>
          17 6 3 6 -1.</_>
        <_>
          17 8 3 2 3.</_></rects>
      <tilted>0</tilted></_>
    <_>
      <rects>
        <_>
          17 11 10 16 -1.</_>
        <_>
          22 11 5 16 2.</_></rects>
      <tilted>0</tilted></_>
    <_>
      <rects>
        <_>
          18 0 12 32 -1.</_>
        <_>
          22 0 4 32 3.</_></rects>
      <tilted>0</tilted></_>
    <_>
      <rects>
        <_>
          18 12 2 1 -1.</_>
        <_>
          19 12 1 1 2.</_></rects>
      <tilted>0</tilted></_>
    <_>
      <rects>
        <_>
          18 22 13 8 -1.</_>
        <_>
          18 26 13 4 2.</_></rects>
      <tilted>0</tilted></_>
    <_>
      <rects>
        <_>
          18 24 8 2 -1.</_>
        <_>
          18 25 8 1 2.</_></rects>
      <tilted>0</tilted></_>
    <_>
      <rects>
        <_>
          19 8 2 2 -1.</_>
        <_>
          19 9 2 1 2.</_></rects>
      <tilted>0</tilted></_>
    <_>
      <rects>
        <_>
          19 24 3 6 -1.</_>
        <_>
          19 26 3 2 3.</_></rects>
      <tilted>0</tilted></_>
    <_>
      <rects>
        <_>
          19 29 13 3 -1.</_>
        <_>
          19 30 13 1 3.</_></rects>
      <tilted>0</tilted></_>
    <_>
      <rects>
        <_>
          20 1 3 7 -1.</_>
        <_>
          21 1 1 7 3.</_></rects>
      <tilted>0</tilted></_>
    <_>
      <rects>
        <_>
          20 1 4 1 -1.</_>
        <_>
          22 1 2 1 2.</_></rects>
      <tilted>0</tilted></_>
    <_>
      <rects>
        <_>
          20 7 2 4 -1.</_>
        <_>
          20 7 1 2 2.</_>
        <_>
          21 9 1 2 2.</_></rects>
      <tilted>0</tilted></_>
    <_>
      <rects>
        <_>
          20 11 6 21 -1.</_>
        <_>
          23 11 3 21 2.</_></rects>
      <tilted>0</tilted></_>
    <_>
      <rects>
        <_>
          20 12 12 16 -1.</_>
        <_>
          20 20 12 8 2.</_></rects>
      <tilted>0</tilted></_>
    <_>
      <rects>
        <_>
          20 14 1 9 -1.</_>
        <_>
          20 17 1 3 3.</_></rects>
      <tilted>0</tilted></_>
    <_>
      <rects>
        <_>
          20 20 4 12 -1.</_>
        <_>
          20 20 2 6 2.</_>
        <_>
          22 26 2 6 2.</_></rects>
      <tilted>0</tilted></_>
    <_>
      <rects>
        <_>
          20 23 2 6 -1.</_>
        <_>
          20 25 2 2 3.</_></rects>
      <tilted>0</tilted></_>
    <_>
      <rects>
        <_>
          21 20 3 9 -1.</_>
        <_>
          21 23 3 3 3.</_></rects>
      <tilted>0</tilted></_>
    <_>
      <rects>
        <_>
          22 0 10 1 -1.</_>
        <_>
          27 0 5 1 2.</_></rects>
      <tilted>0</tilted></_>
    <_>
      <rects>
        <_>
          23 8 6 2 -1.</_>
        <_>
          23 9 6 1 2.</_></rects>
      <tilted>0</tilted></_>
    <_>
      <rects>
        <_>
          23 16 3 5 -1.</_>
        <_>
          24 16 1 5 3.</_></rects>
      <tilted>0</tilted></_>
    <_>
      <rects>
        <_>
          23 19 5 6 -1.</_>
        <_>
          23 21 5 2 3.</_></rects>
      <tilted>0</tilted></_>
    <_>
      <rects>
        <_>
          24 0 2 18 -1.</_>
        <_>
          25 0 1 18 2.</_></rects>
      <tilted>0</tilted></_>
    <_>
      <rects>
        <_>
          24 0 4 24 -1.</_>
        <_>
          26 0 2 24 2.</_></rects>
      <tilted>0</tilted></_>
    <_>
      <rects>
        <_>
          25 22 4 3 -1.</_>
        <_>
          25 23 4 1 3.</_></rects>
      <tilted>0</tilted></_>
    <_>
      <rects>
        <_>
          26 22 6 6 -1.</_>
        <_>
          28 22 2 6 3.</_></rects>
      <tilted>0</tilted></_>
    <_>
      <rects>
        <_>
          26 24 2 6 -1.</_>
        <_>
          26 26 2 2 3.</_></rects>
      <tilted>0</tilted></_>
    <_>
      <rects>
        <_>
          27 8 2 2 -1.</_>
        <_>
          27 9 2 1 2.</_></rects>
      <tilted>0</tilted></_>
    <_>
      <rects>
        <_>
          28 4 2 20 -1.</_>
        <_>
          29 4 1 20 2.</_></rects>
      <tilted>0</tilted></_>
    <_>
      <rects>
        <_>
          28 10 2 7 -1.</_>
        <_>
          29 10 1 7 2.</_></rects>
      <tilted>0</tilted></_>
    <_>
      <rects>
        <_>
          28 18 4 14 -1.</_>
        <_>
          28 25 4 7 2.</_></rects>
      <tilted>0</tilted></_>
    <_>
      <rects>
        <_>
          28 20 4 11 -1.</_>
        <_>
          30 20 2 11 2.</_></rects>
      <tilted>0</tilted></_>
    <_>
      <rects>
        <_>
          28 20 4 3 -1.</_>
        <_>
          28 21 4 1 3.</_></rects>
      <tilted>0</tilted></_>
    <_>
      <rects>
        <_>
          29 21 3 2 -1.</_>
        <_>
          29 22 3 1 2.</_></rects>
      <tilted>0</tilted></_>
    <_>
      <rects>
        <_>
          30 2 2 30 -1.</_>
        <_>
          30 17 2 15 2.</_></rects>
      <tilted>0</tilted></_>
    <_>
      <rects>
        <_>
          30 4 2 17 -1.</_>
        <_>
          31 4 1 17 2.</_></rects>
      <tilted>0</tilted></_>
    <_>
      <rects>
        <_>
          30 5 2 2 -1.</_>
        <_>
          30 6 2 1 2.</_></rects>
      <tilted>0</tilted></_>
    <_>
      <rects>
        <_>
          30 6 2 15 -1.</_>
        <_>
          31 6 1 15 2.</_></rects>
      <tilted>0</tilted></_>
    <_>
      <rects>
        <_>
          30 10 2 18 -1.</_>
        <_>
          31 10 1 18 2.</_></rects>
      <tilted>0</tilted></_>
    <_>
      <rects>
        <_>
          30 21 2 10 -1.</_>
        <_>
          31 21 1 10 2.</_></rects>
      <tilted>0</tilted></_>
    <_>
      <rects>
        <_>
          30 22 2 2 -1.</_>
        <_>
          30 23 2 1 2.</_></rects>
      <tilted>0</tilted></_>
    <_>
      <rects>
        <_>
          31 0 1 10 -1.</_>
        <_>
          31 5 1 5 2.</_></rects>
      <tilted>0</tilted></_>
    <_>
      <rects>
        <_>
          31 8 1 2 -1.</_>
        <_>
          31 9 1 1 2.</_></rects>
      <tilted>0</tilted></_>
    <_>
      <rects>
        <_>
          31 11 1 2 -1.</_>
        <_>
          31 12 1 1 2.</_></rects>
      <tilted>0</tilted></_>
    <_>
      <rects>
        <_>
          31 12 1 2 -1.</_>
        <_>
          31 13 1 1 2.</_></rects>
      <tilted>0</tilted></_>
    <_>
      <rects>
        <_>
          31 12 1 6 -1.</_>
        <_>
          31 15 1 3 2.</_></rects>
      <tilted>0</tilted></_></features></cascade>
</opencv_storage>
