<?xml version="1.0"?>
<opencv_storage>
<cascade>
  <stageType>BOOST</stageType>
  <featureType>HAAR</featureType>
  <height>32</height>
  <width>32</width>
  <stageParams>
    <boostType>GAB</boostType>
    <minHitRate>9.9500000476837158e-01</minHitRate>
    <maxFalseAlarm>5.0000000000000000e-01</maxFalseAlarm>
    <weightTrimRate>9.4999998807907104e-01</weightTrimRate>
    <maxDepth>1</maxDepth>
    <maxWeakCount>100</maxWeakCount></stageParams>
  <featureParams>
    <maxCatCount>0</maxCatCount>
    <featSize>1</featSize>
    <mode>BASIC</mode></featureParams>
  <stageNum>8</stageNum>
  <stages>
    <!-- stage 0 -->
    <_>
      <maxWeakCount>2</maxWeakCount>
      <stageThreshold>-1.5920595824718475e-01</stageThreshold>
      <weakClassifiers>
        <_>
          <internalNodes>
            0 -1 11 3.3356808125972748e-02</internalNodes>
          <leafValues>
            -9.7324413061141968e-01 9.0196079015731812e-01</leafValues></_>
        <_>
          <internalNodes>
            0 -1 14 4.0029495954513550e-02</internalNodes>
          <leafValues>
            -9.6643900871276855e-01 8.1403821706771851e-01</leafValues></_></weakClassifiers></_>
    <!-- stage 1 -->
    <_>
      <maxWeakCount>2</maxWeakCount>
      <stageThreshold>-2.0008082687854767e-01</stageThreshold>
      <weakClassifiers>
        <_>
          <internalNodes>
            0 -1 2 -3.2044522464275360e-02</internalNodes>
          <leafValues>
            8.4466022253036499e-01 -9.5973151922225952e-01</leafValues></_>
        <_>
          <internalNodes>
            0 -1 16 5.4152327356860042e-04</internalNodes>
          <leafValues>
            -9.0714436769485474e-01 7.5965070724487305e-01</leafValues></_></weakClassifiers></_>
    <!-- stage 2 -->
    <_>
      <maxWeakCount>2</maxWeakCount>
      <stageThreshold>-2.4622431397438049e-01</stageThreshold>
      <weakClassifiers>
        <_>
          <internalNodes>
            0 -1 9 -4.9957800656557083e-03</internalNodes>
          <leafValues>
            9.5555555820465088e-01 -9.1639870405197144e-01</leafValues></_>
        <_>
          <internalNodes>
            0 -1 6 1.1312405113130808e-03</internalNodes>
          <leafValues>
            -9.7280240058898926e-01 6.7017441987991333e-01</leafValues></_></weakClassifiers></_>
    <!-- stage 3 -->
    <_>
      <maxWeakCount>2</maxWeakCount>
      <stageThreshold>-3.4340500831604004e-01</stageThreshold>
      <weakClassifiers>
        <_>
          <internalNodes>
            0 -1 15 2.9817070811986923e-02</internalNodes>
          <leafValues>
            -9.1275167465209961e-01 7.0873785018920898e-01</leafValues></_>
        <_>
          <internalNodes>
            0 -1 3 -1.1170567572116852e-01</internalNodes>
          <leafValues>
            5.6934666633605957e-01 -9.3900054693222046e-01</leafValues></_></weakClassifiers></_>
    <!-- stage 4 -->
    <_>
      <maxWeakCount>2</maxWeakCount>
      <stageThreshold>-3.3881640434265137e-01</stageThreshold>
      <weakClassifiers>
        <_>
          <internalNodes>
            0 -1 4 1.1717688292264938e-02</internalNodes>
          <leafValues>
            -8.9710611104965210e-01 8.8888889551162720e-01</leafValues></_>
        <_>
          <internalNodes>
            0 -1 0 -5.8465115725994110e-03</internalNodes>
          <leafValues>
            5.5828970670700073e-01 -9.8537939786911011e-01</leafValues></_></weakClassifiers></_>
    <!-- stage 5 -->
    <_>
      <maxWeakCount>3</maxWeakCount>
      <stageThreshold>-9.2728811502456665e-01</stageThreshold>
      <weakClassifiers>
        <_>
          <internalNodes>
            0 -1 5 1.8119098618626595e-02</internalNodes>
          <leafValues>
            -8.5185188055038452e-01 1.</leafValues></_>
        <_>
          <internalNodes>
            0 -1 10 -8.2579236477613449e-03</internalNodes>
          <leafValues>
            6.1731177568435669e-01 -9.3856519460678101e-01</leafValues></_>
        <_>
          <internalNodes>
            0 -1 13 4.7641349956393242e-03</internalNodes>
          <leafValues>
            -6.9274801015853882e-01 9.9135035276412964e-01</leafValues></_></weakClassifiers></_>
    <!-- stage 6 -->
    <_>
      <maxWeakCount>2</maxWeakCount>
      <stageThreshold>-2.7953365445137024e-01</stageThreshold>
      <weakClassifiers>
        <_>
          <internalNodes>
            0 -1 7 -2.0989544689655304e-02</internalNodes>
          <leafValues>
            1. -8.8087773323059082e-01</leafValues></_>
        <_>
          <internalNodes>
            0 -1 17 5.9713434893637896e-04</internalNodes>
          <leafValues>
            -9.7932881116867065e-01 6.0134404897689819e-01</leafValues></_></weakClassifiers></_>
    <!-- stage 7 -->
    <_>
      <maxWeakCount>3</maxWeakCount>
      <stageThreshold>-9.3811517953872681e-01</stageThreshold>
      <weakClassifiers>
        <_>
          <internalNodes>
            0 -1 1 -7.0543766021728516e-02</internalNodes>
          <leafValues>
            7.4774771928787231e-01 -9.7241377830505371e-01</leafValues></_>
        <_>
          <internalNodes>
            0 -1 12 -3.4742921590805054e-02</internalNodes>
          <leafValues>
            8.1521755456924438e-01 -8.6342209577560425e-01</leafValues></_>
        <_>
          <internalNodes>
            0 -1 8 7.3500745929777622e-03</internalNodes>
          <leafValues>
            -7.4446314573287964e-01 8.9772075414657593e-01</leafValues></_></weakClassifiers></_></stages>
  <features>
    <_>
      <rects>
        <_>
          0 5 21 27 -1.</_>
        <_>
          7 5 7 27 3.</_></rects>
      <tilted>0</tilted></_>
    <_>
      <rects>
        <_>
          0 17 20 8 -1.</_>
        <_>
          10 17 10 8 2.</_></rects>
      <tilted>0</tilted></_>
    <_>
      <rects>
        <_>
          0 21 9 11 -1.</_>
        <_>
          3 21 3 11 3.</_></rects>
      <tilted>0</tilted></_>
    <_>
      <rects>
        <_>
          1 10 19 20 -1.</_>
        <_>
          1 20 19 10 2.</_></rects>
      <tilted>0</tilted></_>
    <_>
      <rects>
        <_>
          6 20 6 3 -1.</_>
        <_>
          8 20 2 3 3.</_></rects>
      <tilted>0</tilted></_>
    <_>
      <rects>
        <_>
          6 20 6 4 -1.</_>
        <_>
          8 20 2 4 3.</_></rects>
      <tilted>0</tilted></_>
    <_>
      <rects>
        <_>
          7 17 5 4 -1.</_>
        <_>
          7 19 5 2 2.</_></rects>
      <tilted>0</tilted></_>
    <_>
      <rects>
        <_>
          8 12 6 8 -1.</_>
        <_>
          8 12 3 4 2.</_>
        <_>
          11 16 3 4 2.</_></rects>
      <tilted>0</tilted></_>
    <_>
      <rects>
        <_>
          9 15 3 10 -1.</_>
        <_>
          10 15 1 10 3.</_></rects>
      <tilted>0</tilted></_>
    <_>
      <rects>
        <_>
          10 16 2 9 -1.</_>
        <_>
          11 16 1 9 2.</_></rects>
      <tilted>0</tilted></_>
    <_>
      <rects>
        <_>
          11 4 18 8 -1.</_>
        <_>
          11 4 9 4 2.</_>
        <_>
          20 8 9 4 2.</_></rects>
      <tilted>0</tilted></_>
    <_>
      <rects>
        <_>
          12 7 6 12 -1.</_>
        <_>
          12 11 6 4 3.</_></rects>
      <tilted>0</tilted></_>
    <_>
      <rects>
        <_>
          13 11 5 8 -1.</_>
        <_>
          13 15 5 4 2.</_></rects>
      <tilted>0</tilted></_>
    <_>
      <rects>
        <_>
          16 17 3 5 -1.</_>
        <_>
          17 17 1 5 3.</_></rects>
      <tilted>0</tilted></_>
    <_>
      <rects>
        <_>
          16 18 12 6 -1.</_>
        <_>
          20 18 4 6 3.</_></rects>
      <tilted>0</tilted></_>
    <_>
      <rects>
        <_>
          17 16 6 8 -1.</_>
        <_>
          20 16 3 8 2.</_></rects>
      <tilted>0</tilted></_>
    <_>
      <rects>
        <_>
          24 18 4 1 -1.</_>
        <_>
          26 18 2 1 2.</_></rects>
      <tilted>0</tilted></_>
    <_>
      <rects>
        <_>
          26 24 6 1 -1.</_>
        <_>
          29 24 3 1 2.</_></rects>
      <tilted>0</tilted></_></features></cascade>
</opencv_storage>
