<?xml version="1.0"?>
<opencv_storage>
<cascade>
  <stageType>BOOST</stageType>
  <featureType>HAAR</featureType>
  <height>32</height>
  <width>32</width>
  <stageParams>
    <boostType>GAB</boostType>
    <minHitRate>9.9500000476837158e-01</minHitRate>
    <maxFalseAlarm>5.0000000000000000e-01</maxFalseAlarm>
    <weightTrimRate>9.4999998807907104e-01</weightTrimRate>
    <maxDepth>1</maxDepth>
    <maxWeakCount>100</maxWeakCount></stageParams>
  <featureParams>
    <maxCatCount>0</maxCatCount>
    <featSize>1</featSize>
    <mode>BASIC</mode></featureParams>
  <stageNum>8</stageNum>
  <stages>
    <!-- stage 0 -->
    <_>
      <maxWeakCount>2</maxWeakCount>
      <stageThreshold>-1.3000200688838959e-01</stageThreshold>
      <weakClassifiers>
        <_>
          <internalNodes>
            0 -1 5 7.9824086278676987e-03</internalNodes>
          <leafValues>
            -9.5286196470260620e-01 8.0582523345947266e-01</leafValues></_>
        <_>
          <internalNodes>
            0 -1 9 1.6059223562479019e-02</internalNodes>
          <leafValues>
            -9.2655396461486816e-01 8.2285994291305542e-01</leafValues></_></weakClassifiers></_>
    <!-- stage 1 -->
    <_>
      <maxWeakCount>2</maxWeakCount>
      <stageThreshold>-3.4343066811561584e-01</stageThreshold>
      <weakClassifiers>
        <_>
          <internalNodes>
            0 -1 10 4.0046077221632004e-02</internalNodes>
          <leafValues>
            -9.8513013124465942e-01 4.9618321657180786e-01</leafValues></_>
        <_>
          <internalNodes>
            0 -1 7 -9.5987934619188309e-03</internalNodes>
          <leafValues>
            7.5645029544830322e-01 -8.3961385488510132e-01</leafValues></_></weakClassifiers></_>
    <!-- stage 2 -->
    <_>
      <maxWeakCount>2</maxWeakCount>
      <stageThreshold>-5.0253547728061676e-02</stageThreshold>
      <weakClassifiers>
        <_>
          <internalNodes>
            0 -1 1 -2.4315718561410904e-02</internalNodes>
          <leafValues>
            9.6039605140686035e-01 -9.9331104755401611e-01</leafValues></_>
        <_>
          <internalNodes>
            0 -1 13 -7.5093712657690048e-03</internalNodes>
          <leafValues>
            9.4305747747421265e-01 -9.5426344871520996e-01</leafValues></_></weakClassifiers></_>
    <!-- stage 3 -->
    <_>
      <maxWeakCount>1</maxWeakCount>
      <stageThreshold>6.6666668653488159e-01</stageThreshold>
      <weakClassifiers>
        <_>
          <internalNodes>
            0 -1 3 -2.2074839100241661e-02</internalNodes>
          <leafValues>
            6.6666668653488159e-01 -1.</leafValues></_></weakClassifiers></_>
    <!-- stage 4 -->
    <_>
      <maxWeakCount>2</maxWeakCount>
      <stageThreshold>-1.1509872972965240e-01</stageThreshold>
      <weakClassifiers>
        <_>
          <internalNodes>
            0 -1 12 -7.9202249646186829e-02</internalNodes>
          <leafValues>
            9.7849464416503906e-01 -9.4788271188735962e-01</leafValues></_>
        <_>
          <internalNodes>
            0 -1 0 -9.3816429376602173e-02</internalNodes>
          <leafValues>
            8.3278399705886841e-01 -1.</leafValues></_></weakClassifiers></_>
    <!-- stage 5 -->
    <_>
      <maxWeakCount>2</maxWeakCount>
      <stageThreshold>-4.1004821658134460e-01</stageThreshold>
      <weakClassifiers>
        <_>
          <internalNodes>
            0 -1 14 2.4716112762689590e-02</internalNodes>
          <leafValues>
            -9.6563571691513062e-01 7.4311923980712891e-01</leafValues></_>
        <_>
          <internalNodes>
            0 -1 4 -3.4123513847589493e-02</internalNodes>
          <leafValues>
            5.5558753013610840e-01 -9.8451846837997437e-01</leafValues></_></weakClassifiers></_>
    <!-- stage 6 -->
    <_>
      <maxWeakCount>2</maxWeakCount>
      <stageThreshold>-3.0774739384651184e-01</stageThreshold>
      <weakClassifiers>
        <_>
          <internalNodes>
            0 -1 8 5.4681800305843353e-02</internalNodes>
          <leafValues>
            -9.6551722288131714e-01 7.2727274894714355e-01</leafValues></_>
        <_>
          <internalNodes>
            0 -1 2 -8.5897799581289291e-03</internalNodes>
          <leafValues>
            6.5776985883712769e-01 -9.5569306612014771e-01</leafValues></_></weakClassifiers></_>
    <!-- stage 7 -->
    <_>
      <maxWeakCount>2</maxWeakCount>
      <stageThreshold>2.5641063228249550e-02</stageThreshold>
      <weakClassifiers>
        <_>
          <internalNodes>
            0 -1 6 2.4517687037587166e-02</internalNodes>
          <leafValues>
            -9.7368419170379639e-01 1.</leafValues></_>
        <_>
          <internalNodes>
            0 -1 11 7.3750456795096397e-03</internalNodes>
          <leafValues>
            -9.7435891628265381e-01 1.</leafValues></_></weakClassifiers></_></stages>
  <features>
    <_>
      <rects>
        <_>
          0 5 20 22 -1.</_>
        <_>
          10 5 10 22 2.</_></rects>
      <tilted>0</tilted></_>
    <_>
      <rects>
        <_>
          0 17 31 8 -1.</_>
        <_>
          0 21 31 4 2.</_></rects>
      <tilted>0</tilted></_>
    <_>
      <rects>
        <_>
          1 9 4 22 -1.</_>
        <_>
          1 9 2 11 2.</_>
        <_>
          3 20 2 11 2.</_></rects>
      <tilted>0</tilted></_>
    <_>
      <rects>
        <_>
          2 13 6 13 -1.</_>
        <_>
          5 13 3 13 2.</_></rects>
      <tilted>0</tilted></_>
    <_>
      <rects>
        <_>
          4 0 26 12 -1.</_>
        <_>
          4 6 26 6 2.</_></rects>
      <tilted>0</tilted></_>
    <_>
      <rects>
        <_>
          8 18 6 3 -1.</_>
        <_>
          10 18 2 3 3.</_></rects>
      <tilted>0</tilted></_>
    <_>
      <rects>
        <_>
          10 0 16 9 -1.</_>
        <_>
          18 0 8 9 2.</_></rects>
      <tilted>0</tilted></_>
    <_>
      <rects>
        <_>
          12 14 6 3 -1.</_>
        <_>
          14 14 2 3 3.</_></rects>
      <tilted>0</tilted></_>
    <_>
      <rects>
        <_>
          13 0 12 22 -1.</_>
        <_>
          19 0 6 22 2.</_></rects>
      <tilted>0</tilted></_>
    <_>
      <rects>
        <_>
          15 16 9 3 -1.</_>
        <_>
          18 16 3 3 3.</_></rects>
      <tilted>0</tilted></_>
    <_>
      <rects>
        <_>
          16 11 16 6 -1.</_>
        <_>
          24 11 8 6 2.</_></rects>
      <tilted>0</tilted></_>
    <_>
      <rects>
        <_>
          18 17 8 12 -1.</_>
        <_>
          18 17 4 6 2.</_>
        <_>
          22 23 4 6 2.</_></rects>
      <tilted>0</tilted></_>
    <_>
      <rects>
        <_>
          22 2 5 24 -1.</_>
        <_>
          22 14 5 12 2.</_></rects>
      <tilted>0</tilted></_>
    <_>
      <rects>
        <_>
          22 18 9 6 -1.</_>
        <_>
          22 21 9 3 2.</_></rects>
      <tilted>0</tilted></_>
    <_>
      <rects>
        <_>
          24 9 8 16 -1.</_>
        <_>
          24 9 4 8 2.</_>
        <_>
          28 17 4 8 2.</_></rects>
      <tilted>0</tilted></_></features></cascade>
</opencv_storage>
